2076 150
und 0.26456043 0.835257 0.057463437 -0.3221074 0.045267146 0.9797111 -0.2786334 -0.18047397 -0.57148004 0.05435343 -0.13528344 -0.48179364 -0.07667402 0.007389051 -0.08503169 -0.054989677 -0.5869126 0.06652111 -0.031503677 0.06028498 -0.0115797315 0.60212016 0.6579798 1.2556409 -0.83034784 0.6629227 -0.608271 0.9255961 -0.46489352 0.04900905 0.027854286 0.14517853 -0.0065820864 -0.1990382 0.21009003 0.5097604 0.5535597 0.26726308 -0.0056369407 -0.42405283 -0.8138149 0.5011592 -0.2713301 0.39064863 0.2913533 -1.5765432 -0.52332985 0.017709224 0.29330376 0.6699724 0.017615305 -0.12675351 -0.29761508 -0.1818764 0.11890885 -0.4339938 -0.13546436 -0.38126853 -0.4819253 0.106123805 -1.6748624 -0.22070695 0.17099902 1.2286069 -0.035643417 0.2687118 0.0570483 -0.3543689 0.17329566 -0.22896786 -0.26203603 -1.2050704 0.5076401 -0.1815105 -0.098955445 0.25235927 1.0097656 -0.6072217 1.002836 0.522309 -0.09647033 -0.12292435 0.22947541 0.68025655 0.33962682 0.08186663 -0.3874605 -0.36294407 -0.35675818 0.39628628 -0.1911614 0.7171487 0.015135295 -0.12719393 -0.14082958 0.37412614 -0.56870705 0.22800781 0.5594735 -0.70119315 -0.45475206 0.7781655 0.032559015 0.38211694 0.7513278 0.6595129 0.54101056 0.7382628 0.43610507 0.09585018 0.19969557 0.90297025 0.059667993 0.029719602 0.20378955 0.35116908 1.0290896 -0.17561741 -0.38246897 -0.266722 0.25875136 0.10673539 -0.26608497 0.5944664 0.010997536 0.4026291 0.5998554 -0.15305449 0.32911053 -0.9579627 -0.5074004 -0.66646546 0.22562803 0.2203458 0.5412181 0.22914396 0.041581616 -0.28280467 0.25920373 -0.15223983 0.47669277 -0.25788274 -0.07174629 0.12249928 -0.29686323 -0.7255437 0.056201 0.37825778 -0.52851194 -0.42612463
am -0.58473253 -0.85181355 0.36472756 -0.83554274 -0.08185029 0.95955807 -0.6508872 1.6961793 0.50526357 -0.036463097 -0.18219933 -0.033648614 -0.86021096 -0.9769828 0.16810428 0.8105855 -1.4311757 0.38482508 -1.20946 0.18573563 -0.9675281 -0.5443741 0.38287413 0.45221022 -0.1963185 0.9099419 -0.14858815 0.47658977 0.28465497 -0.2954814 -0.4479946 0.16206591 0.37473607 0.40381548 0.19141297 -0.031165047 0.40801367 0.17538571 0.20155805 -0.6376184 0.45618364 -0.2726702 -0.7689418 1.7966466 0.05761477 1.2192928 -0.12421927 -1.249592 -1.0362337 0.64374745 1.3040273 -0.52700883 -0.5619287 0.59046656 -0.25021026 -0.2159244 -1.0492043 -0.46751818 -0.9582918 -0.32750794 -1.3943346 0.8672261 1.1010042 -0.86682594 0.76402414 1.7046491 0.15657806 -0.4140869 -0.6575708 0.98407924 -0.50235415 -1.0478578 -0.9371667 -0.51632994 0.9277164 1.158577 0.36894453 -0.850886 0.7274807 -0.52173525 -1.0716823 -1.3958099 -0.35955602 -1.1778202 -0.75139177 0.3311273 0.884779 0.069228314 0.9265668 0.2838068 0.7420198 -1.2936566 0.45500514 -0.31893104 -0.78222597 -0.31790772 0.32463455 -0.5648226 -0.36299247 0.08514731 1.3071976 -1.483919 -0.79877055 0.73566127 0.43911645 -0.6115563 0.26290482 0.047928818 -0.3453586 0.8816759 0.15903263 -0.9446262 1.0239319 1.1307676 1.1266916 -0.02704026 -0.3431156 0.5264147 0.5491437 0.11164507 0.09919511 0.91854984 -0.019437857 -0.8237731 -1.0292138 -0.58073384 -1.2216148 0.9408889 -1.7949723 0.1547201 -0.63000965 0.80356807 0.48728976 -0.419153 -1.2046587 -0.24219176 -0.85235703 -0.6243615 -1.1854845 -0.7394205 0.28934947 0.5147223 0.4337724 -0.9281866 -0.5370694 -0.0025886435 -0.5787857 0.60906327 -1.0178653 0.23503742
ich -0.60456914 0.30660668 -0.77902514 0.3682156 0.97768027 0.08309272 -0.6578606 0.28116342 1.4838545 0.3216563 -0.6850702 -1.0171784 0.9910063 0.20336051 0.3587459 0.38455668 0.21372473 -0.35832095 -0.10093459 0.019838046 -0.0898347 0.92216104 0.15654495 -0.09101823 0.8191086 0.67130524 0.34227636 0.6965636 -0.15406281 0.48517647 1.1070067 1.4507979 0.8098331 -1.3946549 0.5303826 -0.5464371 0.84708756 0.055610083 -0.16431063 -0.76452416 -0.28646523 0.12098119 -0.17488648 0.23503202 -0.06155263 -0.55225676 -0.014058076 0.0198973 0.53093773 -0.45049053 0.8243173 0.612111 -0.5217401 1.540711 0.22591689 -0.24988616 -0.1350147 -0.25346178 -0.19113758 0.884969 -0.6499366 -1.0093493 0.15948689 -0.21220182 -1.0170343 -0.22428504 1.3767072 -1.0087551 -0.51984054 0.96494734 -0.49027008 -0.508509 0.82169396 -0.13671874 -1.0836046 0.5059256 -0.48478532 -0.2711373 0.53600496 0.2485666 0.5122866 -0.4823821 -0.8232853 0.29124448 1.6086671 0.008236121 -0.3317443 -0.8612017 1.1177074 -0.7636008 -0.4516477 -0.40102658 -1.1232055 -0.11602324 0.5635306 1.1534985 0.26788124 -0.46165112 0.49426618 -0.49665383 -1.2100382 2.6072237 -0.41126597 -0.28905812 0.54638803 0.0048392513 0.068046495 0.2777425 0.8436835 -0.6614153 0.025402635 0.21412705 -0.6332447 0.36418158 0.8964985 0.39117196 0.15096372 -0.6352352 1.0891453 0.039425887 -0.25926065 -0.030959044 0.19068973 0.21426171 0.5830976 -0.642317 -0.91586053 0.59589756 0.12851113 0.56526095 -0.41280875 -0.13978021 0.21565624 0.49763736 -0.113457024 1.256447 -0.19960257 -0.19257118 -0.43831667 0.4952176 -0.5233203 0.3118937 0.57813764 1.5526643 -0.21548109 -0.108526215 0.57560045 1.0232486 0.7731685 0.5200003
de -0.1929477 0.60275227 0.10597965 -0.46700212 0.53271085 0.042743716 -0.8775707 0.58105165 1.0772308 -0.02453479 -0.07701828 -0.115374744 0.6876173 0.114540756 -0.09536593 0.6445626 0.08085593 0.6425206 -0.99005556 -1.1516117 -0.30282906 -0.43564072 0.31719065 1.0913107 0.28968656 -0.57244414 -1.3098985 0.25588274 1.034075 -0.19466695 -0.9862478 -0.41935724 0.24994358 -0.13420144 0.4983273 0.6378296 0.18868671 0.4027009 -0.02818487 0.30655143 0.081952676 -0.102651194 -1.4106027 0.18202111 1.1168922 0.34944353 0.6866898 -0.116071746 0.8172541 1.0536371 -0.3641353 -0.079158425 -0.1013082 -0.13442005 0.33300376 -0.2618854 0.09290915 0.83761376 -1.0613081 0.24681409 0.18261164 0.52930224 0.19250375 1.0810938 -1.349234 0.31088522 -0.875731 -0.15311868 -0.7557422 0.56025964 -0.24994586 -0.06806074 0.022077203 0.019483723 -0.24117814 -0.3238048 0.28484148 -0.7228896 0.95723224 0.9244724 0.63809603 -0.2216095 0.53746253 1.0412675 -0.67549986 0.3721214 0.82733804 -0.060959805 0.561676 0.35038653 0.20759413 -0.09842368 -0.5143425 0.51320136 -0.12814935 -0.2853726 0.94687426 -1.2558887 0.71754223 -0.44947952 -0.2770969 -0.2293792 -0.716506 0.8660136 -0.55019355 0.4548835 -0.4850363 0.111817196 -0.7034758 -0.3988673 -0.122459605 -0.22758104 0.46304256 1.0423065 -0.01101388 -1.0562596 -0.04571056 1.036504 -0.59460515 -0.97135925 -0.31314695 -0.44939175 -0.6959296 -1.2298204 -0.6080485 1.0021986 -0.5198864 0.22387683 -0.070036195 0.5518731 -0.82148826 0.38897678 -0.43336353 0.49138787 0.48641238 0.09823741 -0.11214225 0.4743948 -0.9786054 -0.21157472 -0.46704826 -0.47898588 -1.3322856 0.73554283 -0.3619068 -0.87422514 0.34279546 0.14466932 0.3959403 -0.10026866
isch 0.41427496 -0.041068338 -0.341102 0.8689713 0.7261582 0.4061845 -0.028156755 1.0519917 0.5763816 -0.0008961866 0.20875348 -0.6171969 -0.16634332 1.9950825 0.62694573 -0.32399458 -0.51540464 0.7565892 -1.000616 0.6748112 -0.55625904 -0.23129737 -0.20406587 0.20067924 -0.9788303 -0.68349737 0.21425347 0.34795 -0.4034292 0.5368095 0.43699482 2.2040048 0.94720936 0.927022 -1.2083032 -1.0673378 -0.15119828 -0.82667464 0.2854016 1.2119083 -0.370157 -0.7450999 0.74544954 0.33937475 0.16766383 0.44623727 0.6245864 0.742049 0.70282173 0.2809423 -0.50250065 1.1006836 0.053063054 0.08168171 0.9381989 -0.24901423 -0.47205773 -1.7465512 -1.0440009 -0.37373766 -0.90229195 -1.3341228 0.057925135 0.6069 -1.033835 -0.55053866 -0.6027194 0.10874195 1.6121687 0.024080737 0.18887615 0.28816354 -0.29402596 0.24872214 1.6075778 0.4795047 0.59885734 -0.44249508 0.7823163 0.6140274 0.5681044 1.3525834 0.11912283 0.46450758 1.1494777 0.4816231 -0.48718694 0.1019576 0.4568689 0.68954295 -1.0651687 1.6505474 0.34511036 0.6320145 -0.19902283 0.2931674 0.7293038 0.6865224 -0.6168823 0.22910987 0.24795075 0.08646657 -0.1964823 0.2443419 -1.3395429 0.2681127 0.2817464 0.25319222 0.21921515 1.3574653 0.20695339 0.4328547 0.15354708 -0.11047339 -0.7517178 0.7871047 -0.16649728 -1.6196218 0.5081488 0.46598932 0.04269499 -0.74846697 0.21435376 0.94992906 -1.9439405 0.79053444 -0.40992856 -0.06345939 -0.24868242 0.7753228 -0.16239795 -0.6857414 -1.1881078 0.06379182 -0.22981133 -0.30411488 -1.0778809 0.87910205 -1.456605 -1.2508101 0.16491269 -0.14020912 0.3339948 -0.16010956 -1.0237525 -0.61524916 -2.1067555 0.31106552 1.0168836 0.16881971
no 0.8057507 1.2132151 -0.41966233 -0.84147066 -0.50263244 -0.16606142 -0.4215708 -0.074550174 0.15604606 0.16858736 -0.011174749 -0.8475666 0.12336843 0.05056474 0.7154931 -0.5127213 -0.7991353 -0.2618817 -0.36399147 -1.0218546 0.1565052 -1.1689246 0.1397148 1.7353005 -0.5137455 1.0923352 -0.6959182 -0.47892445 -0.10792421 -0.5431005 -0.57013935 -0.0249695 -0.34884852 -0.87726736 0.7348214 0.5217665 0.56781304 0.43001732 0.24923766 0.18515639 -0.2556408 0.6567489 -0.16236295 0.089999035 0.021602077 0.6315794 0.97236943 -1.2395272 0.2275639 0.9333244 0.15672234 -0.3228914 1.2194669 -0.35672483 1.1459976 0.14226636 0.4495631 0.6586132 0.25198337 0.29840618 -0.7126935 0.97413194 -0.21959835 1.3979107 0.22545607 0.99373186 -0.59487975 0.31396395 -0.2642969 -0.003635241 -0.63803554 -0.7241085 -0.8340559 -0.0040308596 -0.78423935 0.0072105424 -0.4959071 -0.42214498 0.40738088 0.2966381 0.2724199 0.05368916 1.4517953 0.28345853 -0.66258466 0.5678476 -0.059911016 -0.038381193 1.0124347 0.4403159 0.10187049 -0.3848585 0.47832182 0.24561301 -0.41931814 0.08096168 -0.38401735 -0.6925575 -0.36547175 -0.9331986 1.287809 -0.3831402 0.48953325 0.26561022 0.40132114 0.161606 0.438524 0.4892026 -0.18215615 -0.35317463 -0.6548479 0.044367757 -0.4002742 0.23553954 -0.18269597 0.11885986 1.0046744 -0.74569744 -0.7065746 -0.24680734 0.7571394 -0.12658721 -0.7261242 0.4282849 -0.078756586 -0.06571266 0.093587935 0.50241095 -0.47893125 -0.34055233 0.035355374 0.5312326 0.14021327 -0.10179409 -0.83803195 -0.7535257 -0.2528104 -0.11104606 -0.32409254 0.28284115 -0.65100586 -0.053483143 0.08738031 0.74216795 -1.4884089 0.17393334 0.15913099 -0.105555505 0.5438297 0.5667182
du 0.2834977 1.3093351 -0.38649106 0.041080274 0.7111715 0.18039413 -0.61254513 0.869863 0.10572824 -1.0759131 -0.53272104 0.38756886 -0.226668 1.0640036 -0.50162756 1.3090076 1.4900061 0.040154267 1.0366396 -0.45914093 -0.43124157 -1.6425105 -0.35206875 -0.67375684 0.17322479 -0.8996531 -0.103623755 0.46296602 0.5075425 -0.9828133 0.76096517 0.3295922 -0.4467512 -0.52956504 0.68187606 -1.7945806 0.7918292 0.104980506 -0.33947232 0.020651158 0.07308493 0.07410753 0.096484065 -0.017322661 0.51415205 -1.0761129 0.69586897 1.1853982 -0.55854636 -0.2382561 -0.5043443 0.43355882 0.56171376 0.43901703 0.4473208 1.0318453 -0.5173519 0.2646425 0.8499135 0.08018644 -0.59753317 0.6398749 -0.073012844 -1.8779708 0.972322 0.16990407 -0.9324821 -0.6190322 0.29261604 -0.7851838 -0.615081 -0.48361197 0.10302339 -0.5025037 0.4089852 -0.35940045 1.7567207 -0.5576354 1.0380905 -0.41726238 0.34187818 -1.6016319 -0.71730244 0.39785758 0.5726802 0.15021977 0.11969371 -0.3846342 -0.11151693 0.44968194 -0.1832821 0.56095594 -0.5625238 -0.33279073 -0.30612877 0.9699245 0.7147242 -0.6300045 -0.21943091 -0.22172907 -0.6311513 1.1956095 -0.04336261 0.0173323 -0.5557801 -0.35827926 1.0592825 -0.13440946 -1.6898719 0.074499756 0.75009626 1.3934702 0.06326356 0.28778237 -0.8150163 -0.78835535 -0.25918767 0.6312812 -0.47855157 -0.06327446 0.12073094 -1.0973598 1.2762165 0.5091718 0.58632404 -1.6542763 -1.0574924 -0.36361316 -1.0086159 2.3876922 1.1382909 -0.49521282 -0.97539395 0.58100724 -0.28662163 -1.1044896 -0.06727911 0.054119214 0.69458175 -0.8110789 0.53122216 -0.15591887 0.46241513 0.8328878 0.06988201 0.14981744 0.48436013 -0.13997316 0.28829688 -0.039423626
au 0.1005654 0.2550135 0.13813183 -0.13298918 0.3955496 -0.34654772 0.32765365 0.56965214 0.13782336 -0.03794077 -0.5377175 -0.27814263 0.098953485 0.081027046 0.13971584 -0.63176596 0.3122947 -0.011752833 0.3720951 -0.6012764 -0.31936565 0.34646267 0.27452126 -0.03646326 -0.5601788 0.089697085 -0.30086666 0.19467734 -0.058414564 -0.18677403 0.8209676 0.85377437 0.19603437 -0.43145645 -1.4605387 -0.36253044 -0.2467722 -0.19176942 -1.0613067 -0.39420417 -0.39773664 -0.026486136 0.39802846 0.6647308 0.0574666 -0.7085035 -0.061555404 -0.59747666 0.017632518 -0.5226999 0.6449266 -0.42963767 -0.14918351 -0.07572027 0.095461935 0.7886127 -0.21317329 -0.28877258 0.38099238 0.61372256 0.17790036 -0.31578997 0.06486117 -0.76473355 0.1114422 0.29265085 -0.4901814 -0.16449852 -0.45506006 0.13939226 -0.14335145 -0.59542793 0.29975578 -0.33445784 0.6363106 -0.018286869 0.5092078 0.48535204 0.27687714 0.026428461 -0.33121768 0.020420343 -0.73445 -0.12537092 0.54097104 0.7051297 0.24616064 0.0651259 -0.037484966 -0.0636547 -0.5770255 0.50912124 0.08029681 1.0626482 -0.25598344 0.39393833 -0.20344113 -0.8685925 0.033279777 -0.7525829 0.28144816 0.25933358 -0.067764044 -0.43437693 -0.30451357 1.0422534 0.28962934 1.1150523 -0.36151606 0.64548963 0.32647443 -0.15061179 -0.38059187 0.34023288 -0.6042573 -0.73073566 0.6107863 0.15482657 0.024496524 -0.8170089 -0.54875034 0.0013181143 0.5049435 -0.33808362 0.5913469 -0.37810165 0.09936303 -0.018194038 0.065007515 0.18475807 -0.25979587 0.28750515 0.27343482 -0.74634546 0.48318964 0.3875048 -0.23712401 0.49628708 0.8542787 -0.04620825 0.6689011 0.37104797 -0.32609472 0.18447061 -0.43716002 0.29695374 -0.04395485 0.010191635 0.04711594 -0.05816529
so 0.14646633 0.7302133 0.6124866 0.41737762 0.26323885 0.13663411 -0.1027211 -0.22881362 -1.2838324 0.034597207 0.6666234 -0.13384329 0.91678625 0.13303481 0.5489287 -0.8196508 -0.76494575 0.6987293 -0.17080204 0.35124478 0.6953666 0.15089431 0.56115633 0.40642434 -0.7527858 0.6178173 -0.104739904 0.62390447 -0.064763546 0.3805212 1.0021796 -0.15262878 0.5010811 -0.9046812 -1.2508729 -1.0715414 -0.59751046 0.06486163 -0.28264254 0.4967157 -1.2539563 -0.7175538 0.24013442 0.6127225 -0.008733525 -0.67142975 0.21098074 -0.093372904 -0.5816358 -0.057085 -0.603604 0.9219009 0.05098445 -0.42932627 -0.40370196 -0.2266707 -0.14904717 0.095780365 -0.306449 -0.6492877 -0.44377568 -1.1898342 0.5015698 0.07191415 0.04899853 -0.22957207 -0.32480943 -0.1526183 -0.9471067 -0.7929972 0.31976283 -0.82949954 -0.14502269 -0.18084903 0.39924502 -0.41306758 -0.0931917 -0.52474797 -0.46761757 1.3726344 0.3826057 -0.0010395179 -0.17708509 -0.3547711 0.19577397 0.12590523 1.0393307 0.21403642 -0.09053974 0.89216566 0.13518733 -0.7368136 0.13000548 0.8716269 0.27030012 1.1201448 -0.34759316 -0.27225316 0.53766066 -0.39460975 -0.47812936 -0.49113664 0.18546368 0.40424043 0.61489904 0.49456468 0.53171796 0.5255643 0.6745184 0.41988277 0.20400445 0.3320723 0.24155137 -0.70001024 0.21227102 0.59016544 -0.36350623 -0.21745507 1.0031043 0.39908963 -0.5019222 0.079944745 0.31656784 -0.8534048 -0.4639354 -0.20066066 -0.49364117 0.22586188 -1.101265 0.4183323 0.39542535 -0.71901 0.89023685 -0.34134564 -0.6618018 -0.123028554 -1.1140517 -0.048640296 -0.13952525 0.42477524 1.0787051 -0.20762464 0.022178568 0.042119298 0.61299133 -1.126861 -0.08203727 -0.9325927 0.06579848 0.95978135
lg -0.059749924 0.39695096 0.42823547 0.105717674 0.28190565 -0.75559545 -0.29146188 0.37612274 0.47089553 -0.61188394 -0.27163312 0.27274537 -0.049395673 -0.509787 -0.08583051 0.24264647 -1.9271502 0.5575736 -0.23821767 0.154431 0.8645093 -0.17205393 -0.06679631 0.7000622 -1.1740594 0.2935142 -1.7705114 -0.4633335 0.41740716 -0.7787491 -0.30913308 0.1180182 0.03573594 0.9873821 1.1527642 0.819691 0.31011778 -0.4571362 -0.88633937 0.06439822 -0.36657396 -0.29839653 0.39935488 1.2809383 0.04432341 -0.40327802 0.28564158 -0.55559266 0.3231653 -0.2894636 -0.17300063 -0.6114549 -0.5082286 -0.35058996 0.26661193 0.36648363 0.20586488 -0.6156603 -0.3290984 0.7534345 -0.05782289 -0.35361072 0.18983568 0.4314144 -1.0137652 0.95251834 -0.54076236 0.18194374 -0.90839976 0.21163489 -0.63001776 -0.2874616 0.6732811 0.0058159805 0.7510909 0.459718 -1.1413845 0.54810107 0.21643977 -0.25984332 0.26138613 1.1997327 -0.34622943 -0.5438195 0.26156408 0.31615618 -0.6889969 -0.10824598 -0.3412246 -0.08768211 0.114099994 -0.12024644 -1.0047674 0.6602984 -0.07134033 0.21579732 -0.87621325 0.123929024 0.20450282 -0.7867772 0.12382628 -0.4078222 0.26520097 -0.030377494 0.3593326 0.0827425 0.41011372 0.16295417 -0.3343542 0.24554363 0.7926818 -1.0103397 0.45846242 0.64491445 0.39628732 0.63896173 -0.7114166 0.48826995 -0.018638333 -1.6008117 -0.42923597 -0.2257771 -0.025544384 0.35842505 0.063152716 -0.60132986 0.6809614 0.5227478 -0.093904674 0.3247446 -0.99034613 -0.7826518 0.33151332 -0.48962688 -0.42962584 -0.3197333 -0.14177017 -0.0054472955 -0.24582161 0.4185897 -0.55598193 0.17719184 0.4512127 -0.4569451 -0.9413911 0.20065747 -0.94619554 -0.04754786 -0.59304255 -0.7735185
mir -0.20294328 0.1821572 0.22300428 -0.6047225 0.27870244 0.26761574 -0.4921923 1.7568104 1.8887488 0.3295497 0.20641129 0.1596619 0.09323362 0.35687715 0.57532686 -1.3665131 0.33130708 -0.43554056 1.001294 0.72026056 1.2278262 0.30853316 -1.5277178 0.84998447 0.12238161 -1.7971134 -1.5985653 -1.8653481 0.66117024 0.04079851 0.19628027 0.42552182 -0.98458207 -0.5716418 0.6354203 -0.31874275 0.9118295 -0.8245583 -0.4632307 1.1530082 -1.0823586 0.14416744 -0.92872703 0.093168996 0.31878594 -0.019042322 0.08244937 -1.4334788 -0.90949965 -1.3843255 0.79764307 -0.74786675 1.6550279 -1.1425947 -0.7741869 -0.3737348 -1.2189896 0.58523566 -0.41793433 1.0939047 -0.5483744 1.0792251 0.49434844 -0.6177256 -0.5136183 0.43153948 0.07156548 0.22526012 -0.20024987 1.6427983 -0.6739673 -0.54629177 0.7164266 -0.7003996 -0.252735 0.76716983 0.0033891043 -0.6799861 0.40505236 0.7074588 0.28265023 0.37166974 -0.33589897 0.19885293 -0.18852106 0.89028686 0.3760189 -0.9093456 0.10883172 2.761039 -0.4473468 -0.31110686 -1.3712162 0.61752194 -1.0227017 0.62620324 -0.21340255 0.6253509 -0.81296474 -0.6530484 0.09779023 -0.043408968 -0.6485177 0.51180536 1.153244 0.18477991 0.074976504 0.003483469 -0.041953687 1.3985648 0.5123772 -0.018492345 1.1175287 -0.5106264 -1.2328193 0.6832585 -0.2500895 -0.6932859 -0.62010384 -0.8841671 -0.15414892 0.64223295 -0.16921851 -0.9543279 0.79805857 0.06824326 1.3996706 -0.60946804 0.17366335 -0.33399242 -1.1693087 0.27100658 -0.5047849 0.17877579 1.5834485 -0.04757786 0.44957232 1.2131596 -1.2184172 -0.38763785 -0.57328767 0.3638436 0.105488576 1.3964632 0.647902 -0.23069325 -0.7083851 -0.56043315 -1.163531 0.15874691
dir -1.8829365 0.53310776 -0.019492876 0.24578857 -0.048620977 1.0726135 1.1790966 1.2082047 0.07870522 -0.58953935 -0.92065865 -0.33432758 2.473292 0.0618716 0.7425207 0.2562962 0.11739853 0.86249936 0.027718067 -0.8760804 1.5241883 0.08082185 -0.74388176 -0.15009977 1.1837552 -0.96784925 -0.10419094 1.0395606 0.9057045 0.6500159 0.63737154 -0.447432 -0.2211687 -1.0666469 0.33813986 -1.200622 0.9163491 -0.3161778 0.35781595 -1.3915241 -1.3353429 0.032970935 -0.70324653 0.966676 0.25698692 0.5199456 0.3837519 -0.20164348 -0.8520878 -1.5386198 0.2955326 -0.44047883 0.47056454 -1.2562884 0.13592173 0.8408185 -0.43697628 -0.30772346 1.0425162 -0.09685035 -0.3526367 -0.1240173 -0.931336 0.2265317 -0.28887275 0.8443942 1.2780452 -0.5060904 -0.13698655 0.6396103 -0.028729143 -0.16463917 0.9501098 0.95928067 -0.5117568 0.6409559 0.011101269 -1.9658006 -0.90601623 1.0609093 1.1384951 -1.0271927 0.29263043 0.41023052 -0.19128051 0.25830415 -0.31413066 0.57572365 -0.2162099 0.47239453 1.180525 -1.0410584 -0.22785264 -0.01594317 -0.26620454 0.17413709 0.45737478 0.5462982 -1.3516657 -1.6735284 -0.3718995 2.5259001 -0.39137256 -0.27510384 1.4575951 0.3862213 0.8480052 -1.4142728 0.613887 0.24850188 1.4863155 0.32972157 2.3852334 -0.4354387 -0.22388862 -0.6885268 0.47105142 -0.17253211 0.20652789 -2.124562 0.15179332 0.26612216 0.045039322 -0.2209303 -1.1888305 1.0974865 -0.6228639 -0.87201416 0.22437921 0.80891323 -0.6851899 -0.41751635 -0.58346665 -0.3720968 1.4441059 1.1275197 -0.8078913 0.42407957 0.4764947 0.02582498 0.80992806 -1.2544193 -0.83918023 0.30012476 0.1770157 1.0677401 -0.97879976 0.730558 -0.14198205 0.5213581
ja 0.09642597 -0.43541145 0.27868 0.0001589164 0.65887445 -0.36452278 -0.19784981 0.90346545 0.22445655 0.79686004 -1.4334943 -1.1342278 -0.23442213 0.18822731 -0.051888466 0.16835062 0.31224763 0.44838858 0.80305797 -0.55499756 1.1980389 -0.39805883 0.2821135 0.9574869 -0.3035178 0.3686398 -0.13760312 0.16506433 -0.31927076 1.1476893 -1.1104155 3.30806 1.888679 -1.2789268 -3.004742 -1.9038911 -0.76979303 -0.18117334 -0.51653033 -0.77022344 -0.84446144 0.13214822 -0.66049004 -0.16232751 1.0274211 0.1647603 -0.61645085 0.23562168 -0.08472828 0.61570454 0.10788299 -0.53131145 -0.8623316 -0.3451215 0.35621253 -0.31582794 -0.15103845 -0.86663276 0.098353624 0.8214048 -0.21733524 0.4360618 1.0835221 -0.09718094 -0.48006704 0.3925641 0.20383959 0.5250453 -0.10242557 0.33326778 0.45816192 0.06473618 0.34416395 0.30578476 0.19931462 -0.73442197 0.89888906 -0.23817371 0.5778372 0.22491607 0.33640006 -0.38537052 0.41909143 0.18474342 0.29447588 0.84074336 -0.11334831 0.50586414 0.7921617 0.076236784 -0.9123672 1.2265424 0.046069134 1.1090486 -0.34986982 1.2278945 -1.1086168 -0.79387116 0.1915452 -0.7270935 -0.1577201 0.49991468 -0.009346326 0.044520844 0.095452 1.4994264 -0.14940183 0.34811237 0.016919183 -0.1574871 0.75498056 0.19659793 0.21342702 -0.16878894 0.9458705 -0.37745363 -0.12715831 0.5116509 0.08958626 -0.24938214 -0.12111229 -0.14800985 -0.37405935 0.36368757 0.053023078 -0.23875397 0.20255633 0.089909755 0.043323677 0.16874824 -0.20716536 0.23704052 -0.0056285867 -0.182795 0.25845852 -0.115532674 -0.35053083 0.06312177 -0.010575246 -0.035977647 0.37569422 0.3384346 0.25052434 0.361299 -0.06626623 -0.2716632 -0.5961818 0.011901284 1.2616984 -0.74548876
guet 0.73318136 0.29336238 0.6884578 -0.47440752 -0.13870947 0.25324228 0.3819315 1.6012465 -0.5776608 0.4571748 -0.07108021 0.44342193 -0.62052566 -0.04895384 1.0499871 0.25529996 -0.564675 -0.3961342 1.441334 0.5970627 0.72651625 0.8267138 -0.90721947 0.2932476 1.2131588 1.1066413 0.15267423 -0.45848098 0.702461 -0.099616595 -0.7758638 -0.7998884 -0.24628629 0.5680175 -1.510699 0.33164757 -0.27932417 -0.71285504 0.14609522 0.080714785 -0.16634099 -0.5974572 -0.4888634 -0.2883399 -0.24014081 -0.1895011 0.34551054 0.6138436 -1.7610465 -1.9401667 0.47474167 -0.9504018 0.58332086 -0.041820258 -1.8324652 -1.1282578 0.20028174 -0.14107685 0.4561398 -0.41384155 -1.7656168 0.27591333 0.5540121 -0.97240716 0.6759151 0.027904382 0.7622516 1.3021904 0.72975296 0.47721586 0.98972636 0.13615698 0.52518606 -0.3962835 -0.7769364 0.04576254 0.07242705 -1.0449743 -0.44985774 0.49010593 -0.18711083 0.1641408 -1.9564455 0.2440713 0.39552182 -0.16359644 -0.65722275 0.40012023 -0.52842957 0.88672984 0.25039375 0.17573245 -1.0978019 0.059377335 0.32447731 -0.25492117 -1.1614697 0.036198825 -0.99842936 -1.1111354 0.13153903 0.48597452 -0.13265836 -0.4223925 -0.55273986 2.2469866 -0.047601618 1.0510782 0.73105526 -0.37700036 0.5550928 -0.22545737 0.13517222 -0.718873 0.8585648 -0.40726712 1.1121564 -0.080135636 0.08851173 -0.52446824 0.01700618 0.55850774 0.06493557 0.7067466 0.13911591 -0.6097878 0.027353019 -0.36537808 0.1283155 -0.92659926 1.3954694 -0.7568778 -0.679021 -0.03627692 1.1268235 0.4003956 0.13227656 1.0755248 0.75552446 -1.5693966 1.1293644 -0.6730715 0.4738575 0.17895268 0.4153233 -0.5225032 0.5459217 -0.50450087 0.34428447 -0.4701686
bi 0.6554389 0.8900456 -0.5207137 -0.5551441 -0.4731097 0.69969 -1.6346093 1.0000048 0.07034685 -0.35019255 1.2626895 0.20171545 -1.958604 1.2850837 0.3117271 -0.14390543 -0.3301917 -0.28767806 -0.8378356 0.86855626 0.6833646 0.39989755 -0.6156501 0.71358407 -1.34076 0.07893718 -0.11282736 -0.44505206 -0.6469106 -0.29176387 0.13018693 -0.23724805 0.8178988 2.1060011 -0.41752023 0.17567988 0.67006934 0.13226512 0.14056537 0.14205985 -1.4370947 0.74701786 -0.79936326 -0.5535975 1.3766698 -0.632526 -0.12869678 0.03539046 1.1352909 0.9745121 -0.06348268 0.12113889 0.46719652 0.36795893 -0.8242105 0.7041375 0.9705947 -0.36875924 1.1854587 0.21796952 -1.0855539 -0.27276468 1.3353462 0.6707021 -0.104669064 -0.26742294 0.077596776 0.2447276 -0.057931595 -0.21261 0.82729757 -0.34282887 1.1145817 0.22965667 0.2834539 0.83802766 -0.3837211 0.21772107 0.34932867 1.5493078 -0.07144836 0.8183612 -0.7578976 -1.8882751 0.07880857 0.22414288 -0.7903818 0.30442476 -0.3598896 1.1190807 0.876371 -0.09467824 -0.32410598 0.20083095 -0.17330879 -0.5213034 -0.19831055 1.8292564 1.346685 0.12136695 0.8023029 -0.22504328 1.3654869 0.5895264 -0.5443291 0.7549836 -1.3002634 0.19732839 0.77975166 0.2649374 -1.062505 0.031410567 -0.45035565 -0.104063414 -0.22067444 -0.21278143 0.9833711 -1.3433747 1.5242314 1.1768671 -0.8984453 0.07341997 0.11700962 0.40986073 -1.2102109 -0.49081 0.47905615 0.6872405 -1.7992748 0.55340314 -0.09902674 -1.3952411 0.3343903 -0.0966873 -0.85963094 0.041217137 0.03286832 0.11998446 -0.7153473 -0.6030906 0.25134635 1.1117597 0.47327062 0.09080132 0.7326962 -0.20099367 0.24658582 -0.055678993 0.91492873 -0.5532197
uf 1.0842701 1.426214 -0.8075369 -0.714028 0.25554195 0.5434155 0.059392337 0.9501919 0.4173727 -0.22037974 0.90610075 -0.22737044 -0.7178948 0.15030035 -0.7644569 -0.5269839 0.39637783 -1.2600534 0.33910748 -0.28004467 1.0793061 -0.23590638 0.8908348 0.5621758 -0.7132804 0.74424905 0.41596672 1.851278 -0.9429072 -1.0202255 -1.0067271 -0.2397656 -0.112962835 -0.10917875 0.7323275 1.1192124 0.91927564 -0.46186292 0.17728941 -0.8024482 -1.2961334 0.8404033 0.4391224 0.7081076 0.47787458 -0.34077814 0.2689432 1.6843585 0.29388368 -0.5982284 0.41173476 0.8141554 -0.51895005 -0.14543222 -0.3392976 0.077250436 -0.07792856 0.051669337 -0.82863766 0.97511387 -0.78715515 -0.7519811 0.02806901 -0.7870095 -0.16453405 -0.6205446 0.049198102 0.30875805 0.4486523 0.4382012 -0.93171513 -0.13987406 -0.328875 -1.5480721 0.09618757 0.14983974 0.6327012 0.5143578 0.31123415 1.8705993 -0.70700514 -1.2247701 -1.2295516 -0.6151132 1.3281418 0.8539996 -0.18688391 -1.3787905 1.0501854 -0.1847214 -0.87001073 1.9910125 -0.1675071 -0.3113232 0.8517501 1.0770814 -0.8686123 -0.90024704 -0.22357665 -1.3333441 0.078206286 0.27899694 0.89378595 -0.121468365 -0.9876689 -0.6485451 -0.13439292 -0.709597 -1.3797766 0.065547384 0.2930833 -0.5485561 0.22714843 0.08152501 -0.24459538 -0.06406329 1.2457021 -0.4169962 0.60124385 0.49135366 -0.5201612 -1.2983613 0.23492284 0.08526848 -1.2193153 0.7023598 -1.0142627 0.60047597 0.6734369 0.2059136 -1.2286793 -0.12075496 0.64241844 0.08566877 -1.4242713 -0.25268123 0.1923879 -0.21909574 0.8820165 0.15669076 -0.8067943 -0.8398052 0.6694871 -0.039890956 -0.5283157 -0.51330775 0.39624372 0.5752746 -0.3620453 0.1456426
ha 0.20702767 0.93860734 -0.38956463 -0.913636 0.055490807 0.107833125 0.2664312 -0.44594133 -0.017625958 -0.24203773 -0.773659 1.275124 0.6354882 0.8616976 -1.1092719 0.15870883 -0.665785 0.28099036 -0.57821536 -0.4057277 1.1655148 -0.47948048 -1.6412724 -0.058430955 -0.18042397 2.1605194 0.08367095 1.2200978 -0.81408435 -1.332852 -1.2953308 1.1155385 -0.9633167 1.2477874 -0.6656328 -0.42500982 -0.023757935 0.27172375 2.013912 -0.090728045 -0.7857286 0.52088994 0.6341712 0.2965777 0.5398622 0.8283482 0.57641554 0.15645897 0.45020336 -0.8785854 -0.26213998 0.74632114 1.5236949 -0.5498619 -0.025952876 -0.7011532 1.5822967 0.23255926 -0.5151873 0.6094146 -0.645889 -0.51645595 0.43582836 1.005897 -0.35563573 -1.988409 0.2534907 0.2100839 -0.33082017 -0.11030949 -0.5800848 -0.4237437 0.102166146 0.707812 -0.41464156 0.5024675 -1.1014675 -1.0700575 -0.0014952708 -0.4214597 -0.083386324 0.9565532 0.28156427 -0.50687116 -1.8296247 -0.30002707 -0.8714279 0.4458158 -0.8093841 2.2336996 1.6731725 -0.8811544 0.026285915 -0.13725108 -0.6359832 0.57318765 0.122379445 1.126137 -0.46885794 -0.1988312 -0.14074612 0.35057905 -0.71870595 1.7260175 0.32519338 -1.37244 -0.39620468 -0.0021226406 -0.22781616 0.9017769 -1.1458936 1.6428288 -0.66408366 -0.3194391 0.83040935 0.91488755 -1.5562133 0.46426815 -0.866651 -0.38797092 -1.084586 -0.9359627 -0.28257856 0.755517 -1.0273051 -0.49795678 -0.42681077 0.09170205 0.27873504 0.943293 -0.8743868 -1.2871268 0.66399336 1.0745324 -0.7761919 -0.7274497 0.9179329 -0.3196333 -1.6325191 -0.42055342 -0.40642372 0.20374335 -0.46486703 0.57144916 0.3486306 -0.4692745 -0.43571183 0.07154568 0.6206081 -0.37885284
das -0.11916022 0.8973024 1.0584664 0.06780448 0.20009401 -1.0872775 -0.7199363 -1.1954076 -0.14981814 0.8740774 -0.6058316 -0.5883129 0.17390087 0.5495356 -0.6310614 -0.43260023 -0.487905 0.5073679 0.41439682 -0.71908283 -0.20636894 0.82231337 0.551277 0.4773346 -0.4131574 0.06740347 -0.040035076 0.38537827 0.59395665 -0.4996625 0.040840067 1.5440114 0.89859545 -1.9108567 -0.38657555 -1.099108 0.48475853 1.5026307 -0.3119268 0.23204355 0.47426492 0.589432 0.16667837 0.96902144 0.45235994 -1.2493368 -0.12785767 -1.1408676 -0.29272023 -0.88843274 0.31877866 -0.25020677 -0.1997194 0.08702816 0.13896473 0.8000372 -0.12627356 -0.4816369 -0.042532396 -0.81298345 0.70721966 -0.925374 -0.15947537 -0.101580314 -0.39519078 -1.1675314 -0.83516526 0.43352088 0.059251796 -0.041817453 0.6914642 -0.44682038 0.026548753 -0.001837419 -1.8269076 -1.0726374 0.06380458 0.16249308 0.52794886 0.23455082 -0.5490559 1.1266158 -0.08373769 0.21513213 0.1734011 0.98282444 -0.40622914 0.25312272 -0.28838122 0.6850295 0.35031754 -1.0691149 0.22197546 0.065321445 -0.23014838 0.8161874 -0.30356178 -1.7419059 -0.046813086 -0.046361193 -0.3317928 -0.23474857 0.17803814 0.39868966 0.9687026 0.6858898 0.69895077 0.32367358 0.32302144 0.8957079 -0.2804109 0.51654553 -0.12164344 0.1098922 0.33964765 -0.4027092 -1.1261017 0.35332906 0.11969004 0.8296949 -0.30313456 0.11169611 -0.04101764 0.3154937 1.5290723 -0.45277902 -0.26891217 0.28907508 0.92454785 -0.548072 -0.016734086 -1.1935921 -0.10499387 -0.33444047 0.06564596 -0.39900264 0.16302282 0.352422 -0.25236046 -0.44260785 0.21252203 0.14406373 -0.06353815 -0.05495626 0.55956376 -1.218666 -0.3363362 -0.31794053 0.25536495 0.11633446
aber -0.5230155 0.66364264 0.114466 0.73360443 0.4768676 0.031527627 -0.33251086 0.35581964 0.68554014 -0.49257502 -0.2705247 -1.8018217 1.5116744 0.72688854 0.46901184 0.09692948 -1.9195229 -0.10114338 -1.386107 -1.340828 -0.09554982 0.9260811 0.42452267 1.0255412 -0.6097982 1.1331514 -0.11052619 0.46638182 0.70114523 1.0362042 0.006233201 1.7226192 0.74536127 -1.0761123 -1.2558308 -0.3238949 0.23743421 0.28047484 0.15225857 -0.028336313 -0.2658966 0.12377185 0.64996994 1.2231225 -0.126098 -1.7950246 0.12690298 -0.22005835 0.423094 -0.41311005 -0.78105795 -0.7469432 -0.6245579 -0.25984856 0.34595478 -0.43354896 -0.19895865 0.077108644 -0.80530965 0.22525162 -0.53965724 0.03544013 0.13817906 0.71562636 -1.0439792 0.25117296 -0.39487627 0.77855825 -0.3963606 0.67303824 0.41452342 0.61922324 -0.17375846 -1.2169021 -0.50906897 0.9233692 -0.39511943 -1.2660062 -0.5548075 1.1712607 -0.12788662 1.2129903 0.23285648 -0.557022 -0.20956984 0.3969869 -0.42248178 -1.2861439 -1.3951803 0.9097838 -0.8791347 0.4557261 0.46807602 0.7996657 -0.042290654 0.058770478 -1.7144613 0.3502235 1.152898 -1.417419 -0.55541724 0.88470685 -0.4877455 0.28022563 0.7134073 -0.39029852 1.0915728 -0.17840613 1.235396 -0.09097874 -0.10051934 -0.8181499 1.0936656 0.28319332 -0.39512438 0.5691318 -0.0985803 -0.1491245 0.025039876 -1.02633 -0.90314424 -0.2449851 -0.6025454 0.9226433 -0.183855 0.06490053 -0.4397753 0.07568345 -0.3020567 1.2144798 -0.81812745 -0.81350785 1.4669397 0.16812582 0.8625261 0.9048424 0.5103571 0.032021116 0.38408092 0.3881556 -0.27437332 0.82226056 -0.19869795 0.21844022 -0.8753917 -0.5314997 -0.80344254 -0.2868782 1.543967 -0.55228734
morn -0.11581666 -0.88217485 0.90619326 -0.41569367 -0.29655588 0.24359572 0.35385758 0.20622724 0.74386287 0.093995094 0.55795294 0.31735352 -0.38940477 -1.0104845 -0.3745186 0.0912384 0.04375877 -0.54777855 -0.67615455 -0.95011157 -0.22745322 -0.9825274 -0.6832077 0.6379028 0.14559634 1.3743693 0.24546532 -0.3756189 0.1414393 -0.8417876 0.15853976 -0.36122 -0.35402572 -0.5238348 -0.10488545 0.41861567 -0.18722293 -0.48380572 0.019689526 -0.17375131 1.5797207 -0.13966255 0.016597591 -1.0519717 -0.07865769 0.58043194 0.35077503 -0.2708255 0.61051804 -0.42992878 0.6047066 -1.3243858 -0.2768157 0.36349478 -0.16049115 -0.1474045 -0.37791926 0.18206555 -0.49567667 0.30790368 -0.20229548 0.09291302 0.30648428 -0.4001087 1.3547026 -0.91618526 0.43799114 -0.70739204 0.3067144 -0.20389263 -0.2968245 0.28006908 0.32850122 0.76270235 0.58920324 -0.57465655 -0.5176385 0.54917115 0.41675517 0.008936348 0.30074647 -1.0891197 -0.19082245 0.40041545 -1.3567805 -0.57097906 -0.24596332 0.6708835 0.18380609 -1.1401452 0.11134661 -0.8551001 -0.6735599 -0.72054225 0.3491746 -0.8561347 -0.03908103 -0.14067902 -0.033020064 -0.4005375 0.293173 -0.13864423 -0.65864766 -1.3057911 -0.37939906 0.031455103 0.27322218 -0.46304464 -0.5019419 0.6077797 -0.11936769 -1.0629528 0.1858138 0.68886334 0.6096179 -0.36002284 -0.9051995 -0.112210356 -1.0345082 -0.8762599 -0.21848202 0.22415714 -0.023864357 -0.63164866 1.2788899 -1.5269032 0.19040315 1.4951644 -0.4388922 0.46917728 -0.020253291 0.63146204 0.609847 0.125424 0.42357412 0.49620792 -0.67496973 -0.9176103 -0.6085532 -0.39788365 -0.0015483437 -0.7109391 0.91207874 0.5763268 -0.20846306 0.6000592 -0.8680968 -0.70145047 0.54654944 -0.13867901
mit 1.2298977 0.24307445 -1.475024 0.53198105 0.9954528 0.22396944 -1.0801756 0.18448082 1.2053714 0.21947318 -0.8599169 0.36607546 -0.33923703 -0.7507646 -0.6235408 -0.73880637 0.32416308 0.3059269 0.19118872 0.39515102 0.09392775 -0.6506737 0.503149 0.2896497 -0.52642155 1.7044622 0.29157484 1.2964466 0.49840555 -1.1057717 0.485294 -0.9448934 0.18406141 0.5307726 -0.08748013 -0.17299896 0.3408568 -0.18292715 -1.0268215 -0.018882765 -1.3904068 -0.1496913 1.2002966 0.86885303 0.8633095 -1.6559384 0.39416042 0.040369622 1.243879 -1.0903846 -0.28976864 -1.2079824 -0.71462667 0.7057032 0.2997621 0.78666997 0.12875703 -0.94171166 -0.5400893 0.26641747 0.18693456 -2.1428454 0.4783524 0.46280992 0.6910194 -0.74238026 0.46785742 0.48798674 1.7921464 -0.37716123 -0.8793199 -0.6775931 -0.2706678 0.49871963 0.70445013 0.0040371115 0.74482673 0.70976174 0.33307067 0.5212041 -1.1845926 -0.32115358 -0.89206034 0.052909464 2.2351513 0.27565154 -0.7548093 0.07559162 0.06544781 -0.314956 -1.1363692 1.023632 0.17987296 1.0739754 -0.17809568 -0.28227285 -1.7297502 -0.4657017 0.61655456 0.55897695 -0.40522406 0.39848316 1.1060194 -0.054728672 -0.056689218 1.2060151 -0.8031169 1.5611783 -0.8811021 0.0044926032 0.23351961 1.0925729 0.19465144 1.1780319 0.024602838 -0.043079883 0.48966336 -0.65693784 0.87084764 -0.55395705 -0.2176998 -0.77514035 -0.21763012 0.3348495 -0.52780426 0.1638034 -0.16033076 0.80428267 -0.040228475 -0.5836791 -0.0956463 -0.5640931 -0.3397333 -0.5623308 -0.5112682 0.12615943 0.0023525674 0.7136524 0.34411192 1.7866399 -0.56283206 -0.12176246 0.13560973 0.2681689 -0.7047361 -1.0345762 0.17280357 0.00035314143 -1.1829023 -0.67841774
es 0.8053112 1.1113626 -0.33148783 0.350432 -0.37149316 -0.5441795 -1.0977805 0.09225214 0.21237607 0.15471038 -0.85119885 1.1917633 0.8247987 -0.3206063 -0.8139843 -0.66553074 -0.004600553 0.33717942 -0.70484763 0.8821001 -0.15284148 2.0325935 0.025538646 -0.6428456 0.33915955 0.42922035 -0.18862462 0.65170664 1.8108087 -1.4613297 0.8176815 0.40438968 1.0715593 -0.06109482 1.190182 0.115870714 0.16218413 1.2875625 0.57297415 0.8823379 0.8293228 0.87133044 0.011366496 1.4675561 -0.24332966 -2.2318735 0.061508153 -0.36807474 -0.6103664 -0.85938376 -0.3972659 0.04799257 -0.04663487 1.333688 -0.03777972 0.40336758 0.7741178 0.3869195 -1.4428803 -0.232467 -0.035841905 -0.37406722 -0.8296458 -0.17986992 -0.24629776 -0.417397 -0.5489386 0.09740696 0.5886295 0.4923889 0.91051173 0.51402855 -0.04857756 0.77464074 -0.7602434 -0.9259257 -0.37072328 -0.8491163 0.09922197 0.5603632 -0.8666332 0.6118486 -0.32157743 -0.9994924 -0.58621764 0.2896205 0.51651704 -0.3070867 -0.99351823 1.8274437 -0.16455995 -0.4715333 0.6400137 0.17147276 0.23667522 1.0773013 -0.7506383 -1.6230495 0.5629085 0.41813132 -0.044780437 -0.1656244 0.2771077 -0.44324934 1.4806745 1.6290244 0.7191666 0.4970796 0.7465231 -0.88164675 -0.16294828 1.1836227 -0.05012138 -0.09047045 -0.23800062 -1.0983624 0.5265502 0.12344521 0.7738894 0.014136032 0.49152175 -0.32609707 0.6176435 0.3954252 1.3184333 -2.0693145 -0.8371806 -0.53778684 0.77883226 0.07363604 -0.1702236 -0.35342747 0.44977388 -0.26347524 -0.5307919 0.15306875 0.065007016 -1.2690525 -1.0437232 -1.3349733 -0.6580157 -0.10214315 -1.143206 -0.21478859 0.19532545 -1.4864466 0.59470016 -0.04018401 -1.1134863 -0.7471549
scho 0.2957755 0.18286817 0.8371693 1.0581357 -0.9579421 0.16085002 -0.7558386 1.2384096 -0.015742486 -1.3092775 0.21929382 0.1879856 -0.45418012 1.0539306 0.8745584 -0.26243806 -0.7748376 0.58669984 -1.3157543 0.22538911 0.9259241 0.30792975 -0.3507707 2.0330665 -0.9920341 -0.08833115 -0.48083577 -0.39964986 -0.11887406 0.5486335 0.4934107 0.40025914 -0.0063537485 -1.3763605 -0.4620134 -0.4807427 -0.57226545 0.50952536 -0.32006857 0.13280748 -0.14557219 -0.40987954 0.3239068 -0.14981964 -0.10582963 -0.6791027 0.99206483 -0.6822759 -0.36473092 0.13912933 -0.5169607 0.14147255 0.8729403 -0.13467483 0.5010028 -0.82566416 -0.32209393 0.4992938 -0.7504013 -0.17937915 0.29290643 0.4096421 0.6334743 0.5710543 -1.2331065 1.1042316 -0.18318424 0.43689337 0.5603209 -0.39406756 -0.5513446 -0.33992925 -0.078783356 0.35375234 0.031445783 -0.771412 -0.39085028 -0.86868584 -0.3594866 0.9853355 -0.11214396 0.479173 0.25893286 -0.842568 -0.37873065 0.39635944 0.19377524 -0.91745055 -0.56209064 0.7306038 -1.0328065 0.25599927 0.34556118 0.55124235 0.050454088 1.0197312 -0.64908856 -1.0877724 0.13333209 0.62156355 -0.21879159 0.40490285 -0.031553198 -0.08268212 0.2300526 0.6785264 0.73156524 -0.18594036 0.7283464 -0.36928645 0.50725263 0.3185079 1.0104502 -0.50411475 0.6589205 1.1840589 0.7215423 -0.2625479 -0.7748397 -1.0700986 -0.9731306 -0.44800347 -0.9984731 -0.019268155 0.1292515 -0.83011925 0.048150975 0.18265413 -0.30842584 -0.25344616 0.113130756 -0.7190435 -0.47213587 -0.2353671 0.52333766 -0.22272821 -0.46672064 -0.34770587 0.010702699 -0.37195674 -0.7936967 -0.39150783 0.987455 -0.21844625 -0.115815826 -0.63026506 0.15387815 -1.0668468 1.1981884 0.67168516
hüt -0.32071066 -0.013959163 0.335076 0.6186154 0.07532119 0.69628876 0.26297197 1.4440159 0.8814102 -0.91063404 1.0859767 0.36102298 -1.088678 0.6782905 -0.19779824 0.28158626 -0.05180637 0.024458969 -1.143408 -0.953523 -0.54678106 -0.22109216 -0.22888875 0.7993937 -0.012714941 1.4743354 0.37611222 -0.115498245 -0.44116428 0.20291367 -0.34305426 -0.7740696 0.1545993 -1.0269111 0.105688885 0.013620376 0.124257386 -0.37060097 -0.2401465 -0.19156161 0.8613914 -0.013409154 -0.18924035 -0.1700303 0.46831104 -0.95296085 1.6893753 -0.78679615 0.6438695 0.69487166 1.6992911 -0.45939046 0.529565 -0.44431448 0.39737496 -1.4465599 -1.4964406 0.3990552 -0.86026204 -0.98765635 -1.1673908 -1.21983 -0.1348834 0.29501936 1.4054811 -1.259083 0.56399375 -0.7875674 -0.55159295 -0.84463435 -0.9155691 0.0923133 0.40477297 0.48108092 0.3554377 0.816691 0.06795168 -0.032152675 1.2002228 0.9087545 -0.3044161 -2.2503312 -1.7802839 -0.16987875 -1.3634075 -1.1435319 -0.1130034 0.79110634 0.51803595 0.20966756 -0.3162293 -0.28382257 -0.68370384 0.67396414 -0.5488327 0.66846704 0.25582865 -0.24338418 -0.3339396 -0.08019496 0.6098118 -0.011867836 -1.0326041 -0.43128654 -1.1879963 -0.9384843 0.9075557 -0.26359665 -0.04756448 1.4626914 -0.11456365 -0.22865303 0.56863296 1.248944 0.5596543 -0.28450137 0.18372501 -0.84655786 -0.83628076 -1.3313856 0.6186853 -1.166468 -0.9598528 -0.86599934 1.1980761 -1.2416238 -0.2354977 0.8187277 -1.703539 0.27710915 -0.18195474 -0.12324393 1.1997958 0.29900318 0.060900044 0.59074056 -0.2530473 -0.96870136 -0.0827401 0.19788888 0.33063325 -0.4073342 0.5431365 0.061076935 0.33092073 0.8117763 -0.06781437 0.07548186 -0.12628518 1.2153897
wie -0.6656339 0.046870857 0.6284303 1.0222324 1.380387 0.20211919 -0.24191535 0.26571247 0.6998042 0.4948906 0.39259997 0.50499284 -0.55205226 1.2617948 0.8969386 0.3662708 -0.4717583 -1.1300864 1.5862246 1.3622575 0.43572664 0.6451571 -1.984081 -0.50032085 0.9643849 0.8744715 -0.5301389 0.23024572 0.2680006 -0.22392696 0.7336103 -2.397495 -1.8138921 0.8743215 1.0166312 -0.843206 -1.8351669 0.026985409 -0.8798913 0.5306736 -0.26484936 -0.068321474 -0.033110265 -0.35552925 0.03131153 -0.5648152 0.21252106 0.51086915 -1.4753064 -1.144821 0.503725 -0.9761602 0.8451869 0.16090116 -1.4047483 -1.1333877 -0.9355676 -0.68658066 1.000793 -0.37798005 -0.5590594 -0.19120844 0.7790878 -1.7931311 1.0636317 -0.9695342 0.9566553 1.78526 -0.92216486 0.4843087 -0.38162097 -1.9280447 0.47923678 -1.2829423 -0.109402314 0.2681648 1.7424251 -0.47899622 0.85801834 0.42839676 -1.1820443 0.6253335 -2.804119 -0.26163918 -0.49111575 0.13774492 0.2832039 -0.14059812 0.05763859 0.8817009 -0.84146297 -1.2924441 -0.3462215 1.0758233 -0.9652822 0.94083756 -0.102799885 -1.4671266 0.53357476 0.6374916 -0.096328124 1.1578993 -1.0729963 0.9303218 0.6137829 1.3280333 -0.23233104 0.50990355 1.0737878 0.29695153 0.94406384 1.1577733 0.51738113 -0.6921167 1.8950411 0.71461964 -0.12347956 -0.2717029 1.1366267 0.09628375 -1.5639505 0.56393 0.31957942 0.22038476 -1.1474135 -1.1556263 0.09501436 1.0125184 0.2838643 -1.3744948 0.75380164 -1.6326897 -0.56896555 -0.71972454 2.0681489 0.33230937 0.73179245 1.9468107 0.59121656 -1.5588567 1.4015659 0.30091256 0.119167544 1.974487 1.8045586 -1.059864 0.4607214 -0.7588966 0.46800908 0.92186356
bis -0.35134244 -0.93998796 0.5381736 -0.17530753 -0.35318005 -0.3053661 0.30792853 0.8447683 -0.69264644 -1.2458186 0.508955 -0.174258 -1.2265017 -0.3709891 0.2070918 -0.26264966 -0.7166586 -0.3595199 -1.6168035 0.27749768 1.4621805 -0.04604848 1.6107051 -0.258046 -1.2511487 -0.10771005 1.2070657 -0.41549596 -0.47662708 1.3904871 -0.13527961 1.0064154 1.7622917 0.32621914 0.06286692 0.76889837 0.8723388 0.11120431 -0.17267072 -0.07672773 -0.41993707 -1.0662183 -0.91563964 -0.12729056 -0.89561236 0.97699785 -0.10312547 0.217978 0.27659914 -0.005181315 -0.18409923 -0.03256914 0.793213 1.8794944 -0.73424554 0.1382556 1.3104061 0.011461347 0.052898694 0.8089911 -1.3461215 0.46682426 -0.5335368 -0.021215847 -0.9414437 1.7478706 0.07851709 -0.77227384 0.023737019 0.18913165 0.9053325 1.3295138 1.098891 -0.20078899 0.19796185 0.06086705 0.2121234 -0.7895412 -0.76787007 -0.5355805 -0.045769934 -0.8921797 1.5652491 -0.19105886 1.0919588 0.10375773 1.501286 -0.25774696 -0.16072348 -0.9800225 -0.9747946 -0.8887875 1.2544562 0.27829793 0.74201673 0.88966215 0.99535793 -0.110622436 0.0801772 -2.3470056 1.947358 0.077182464 -1.1667126 -0.6827269 1.0910269 0.62647074 0.27508768 -0.3399803 -0.45067984 -0.881768 0.35260528 0.16182877 0.78177905 1.4202107 -0.6800908 0.46273324 0.7986799 1.4901023 0.49653047 0.9215452 0.75827384 0.1533877 -0.6138514 -0.2225502 -0.21926412 0.4588755 -0.32509756 -0.97462875 0.05030066 -0.49781775 0.55224633 -0.7983986 0.7011368 -0.7258551 -1.0246274 0.9915294 0.47572884 -0.850186 0.6850653 -0.7233666 -1.5385768 -0.88796 0.048669554 -2.0899665 -0.8608848 1.1067787 -0.3496134 -0.016051264 -1.4846547 -0.83203506
en -0.69402283 0.3074231 -0.34970534 -0.7505622 0.42703027 -0.15892997 -0.49974966 -0.18813482 -0.90521955 -0.3125145 -0.978729 -0.82861966 0.3163836 0.33034113 1.5011718 -0.027189925 -0.14591086 0.2666351 -0.652919 -0.9853172 0.27673435 0.52768767 0.6831428 0.700985 0.68292236 1.2630299 -0.45562083 0.54604554 1.8834507 0.26049203 0.5516147 0.31888875 -0.1441939 -0.6685854 1.460967 -0.076771356 -0.6560432 0.9954531 -0.1776859 -0.5131089 -0.15723842 1.5667785 -0.46883956 -0.109917365 0.97258425 -0.09309028 -0.94089586 0.112785116 0.81137174 0.8403819 0.7695516 -1.391629 -1.3591176 0.22512606 1.2171596 0.8442728 0.80899894 0.08402294 -0.33525777 0.039043766 0.46275175 -0.64178157 -0.39689642 1.4339253 -0.08102896 0.3902256 0.6471936 0.023193596 -0.4126621 -1.0387436 0.81592405 0.42412812 -0.31009632 0.840545 -1.2861652 -1.2703941 0.72991574 -1.2433634 1.4899383 0.14245655 1.42527 0.71801037 -1.1815022 1.4109324 0.16677122 1.0570066 1.4875078 0.60632056 -0.1796025 -0.5592335 -0.21032265 -0.17599675 -0.4353157 0.51632017 0.25274268 -0.13203144 2.0786707 -0.22846341 0.5940207 0.39160538 0.46853805 -0.2748015 0.6912495 -0.34555644 0.2010619 1.4521147 -0.47139236 -1.0214354 -0.05538954 0.3389162 -0.5323343 -0.33710718 0.18983161 1.4864639 -0.038316194 0.041271064 -0.11150509 0.7050823 0.10732281 -1.0704229 0.5660529 -0.20892768 0.84246117 0.95894295 0.7995647 -0.47860023 0.5654725 -0.6982999 1.1860647 1.0184768 0.16064656 0.44348082 -0.32392666 0.16580914 0.17459834 0.4674475 -0.46161142 0.28037202 0.29824308 0.45866185 -0.32236537 -0.5300527 -1.0836415 0.6875732 -0.8510793 0.46565342 0.87210447 1.2901937 0.2814203 -0.023198083
han -1.0648443 0.15340923 0.66285884 -0.69997954 0.31740344 -0.111445814 -0.23484723 0.7763354 1.1030276 0.31395227 0.058950257 0.0083399825 -0.48228115 1.2061666 -0.38674885 0.6870081 -0.6912419 0.24724986 -0.7295007 -0.52095616 0.7673628 0.06240931 -1.0961306 -0.056959588 -0.30566257 2.6271515 0.3398171 0.81724143 -1.767487 -0.45932823 -0.010480241 1.613508 -0.65513825 -0.8857132 -1.0873096 -0.5770815 0.42901054 0.5369319 2.079635 -0.76523393 -1.1262149 -0.9631449 1.4075842 -0.48331806 0.7341325 0.2055303 -0.42167604 0.5803003 0.72798175 -1.3527266 0.28607923 0.88867784 2.0247068 0.831255 0.16395794 -1.9124554 0.8160965 1.3196023 0.14106698 0.96325004 -1.9467262 -1.5996691 0.5992538 0.24733719 -0.21829493 -2.452566 1.4344472 -1.5976484 -0.60709053 -0.24967808 -1.6056147 -0.62750566 1.1285636 0.23217529 -0.8965156 -0.29216978 -0.6551228 -0.70801306 0.43175432 -0.3286909 -0.7210072 0.21763384 -0.65700877 0.06661785 -0.17762524 -0.5562953 -0.44282952 -0.5233424 -0.29185098 0.8178961 0.7582725 -0.6338724 -0.092924505 -0.622595 0.31863737 -0.536361 -0.038672403 0.22164463 0.65298915 -0.3400508 -0.66609126 1.6129234 0.018898651 0.81825334 0.81907034 -2.1632078 -1.0085568 -1.5796925 -0.1221118 0.69195503 -0.26381388 1.941659 -0.3519328 1.0094213 1.2926836 1.5017294 -0.8678075 -0.47167468 0.5879503 0.18217003 -1.4260137 -0.62810856 -0.60188615 0.5297831 -0.7219422 -1.4071648 -0.62609816 0.34319165 0.21413909 1.0970631 -0.8729378 -1.7420863 0.74193585 1.1661919 -0.17279603 -0.41990992 -0.22930068 -0.0026217038 -2.432137 -1.1146313 -0.74908435 0.25530425 0.60586524 0.96417403 1.0239065 -0.83699363 -0.19916578 0.90573555 0.38567474 -0.77472574
di 0.7887908 0.7130733 0.78501916 -0.45419967 -1.0545417 -0.4980271 -0.1645704 -1.257227 -1.6858413 -1.1070591 0.14206113 0.37132943 -0.47977358 -1.6330861 -0.82073635 -0.43865356 0.48816714 -1.0137256 -0.15098433 -1.4207445 -0.3422962 0.39336368 0.038864736 -0.2564258 -1.1287091 0.5890004 -0.8561619 0.36247224 0.004976317 -0.040197037 0.7995582 0.3363168 0.8463652 -0.004617648 0.48388192 -0.033865664 0.91613203 1.4471741 -0.17567971 -0.64014614 -1.5645427 0.5537699 -1.2074684 0.053424563 0.5593905 -0.366055 1.3598496 -0.08396795 0.4868775 -0.15295908 -0.79288894 1.410425 -0.18777813 -0.7481154 0.9302373 0.3795935 -0.7203439 -0.21284677 -0.74282473 -0.6064815 0.03532565 0.0026709372 -1.5409162 0.73116827 -0.6400432 -0.30976987 -0.35137346 0.5448947 -0.74656856 -0.9443424 1.6187547 0.19722953 -0.71235466 -0.05837601 0.27820742 -0.31008372 0.49276447 -2.3100176 -1.1700152 1.2535352 1.1631615 0.6048411 -1.339826 1.2818898 -0.54749686 -0.5998093 -0.025414579 0.20650671 0.90716624 0.7166736 -0.48188886 -0.3627997 -1.3055116 -0.4858635 0.19466797 0.61543566 1.00569 0.46024078 -0.2799442 -0.27038553 0.30913746 -0.22551818 0.06937714 1.3492557 0.32239258 0.07163655 -1.2522244 -0.09560847 -0.86914825 0.9029953 1.0816121 -0.8526812 0.07482 0.39226478 0.6667235 -0.13709457 0.2808557 0.54773873 0.12202159 -0.95004606 -0.40993324 0.2875945 0.12677187 -0.42035884 0.9024537 0.8372137 0.13729236 0.3257054 -1.9501808 0.32074514 0.3442564 -0.90178895 -0.09597277 0.22451808 -0.7932775 0.3309849 -0.024579296 1.6179307 -1.3515189 0.33607754 1.091958 -0.22617158 -0.7369968 0.7026908 -0.012048798 0.790101 -1.1018511 -0.81557095 0.12736137 1.5311764
hey 0.30126184 0.059896197 -0.12786528 -0.07024043 -0.3496415 0.6613134 0.4897047 0.61192 0.23287159 -0.613171 0.51163626 0.8076337 0.45460707 -0.34783927 0.943683 0.70649046 -0.24238707 1.7426846 -0.26681858 0.21999657 0.13762654 -0.30747622 -0.20720826 -0.27381995 0.2770565 0.38500544 0.30314764 -0.0886981 0.60108477 0.23801328 -0.12594146 -0.5890061 -0.13993439 -0.73427796 0.5789016 0.57566 -0.7806033 -1.0633723 -0.879245 -0.7477522 -0.18624023 0.920305 0.58876544 0.091809876 0.31231603 -0.9407862 -0.49022767 -0.7347426 -0.84847194 0.510355 -0.07106738 -0.3752426 1.0229104 -0.9207728 -0.85209996 -0.1333134 0.08068825 0.16306277 0.46430454 -0.8669412 0.2344241 -0.6469842 0.6770704 -0.8416862 0.2661942 -0.9211276 0.10531337 0.35207343 -0.6131898 5.87909e-06 -0.34654775 -0.220688 1.2198439 -1.0321983 0.14905955 0.5824869 -0.40740356 0.5474841 -0.47419256 0.36771828 0.5222258 -1.1301318 -0.9242966 -1.3086133 -1.5523086 -0.14658964 0.35039636 0.9686431 -0.14946608 -0.17366017 0.48200285 -0.25935775 -0.22227871 -0.7044606 0.31787568 0.31147763 -0.45580265 0.1038108 0.6242205 -0.44005167 -0.8553851 0.83466655 0.22845088 0.7158513 0.35069758 0.071948975 1.2587671 -1.4863229 0.82942593 -0.11898829 1.3216529 0.56199527 -1.2488762 -0.046023607 0.33438843 -0.66809356 -1.0559955 0.6758654 0.027460396 -0.14011997 -1.5313094 0.088960536 -0.5434519 0.43451154 1.3016694 -1.3173941 -1.3897238 -0.63511807 -0.072990544 0.87849975 0.17496213 -0.58345634 0.4557681 0.5970774 0.41551083 0.045993228 0.5121544 -0.27456272 0.8843862 -0.4731576 1.6715062 0.11183322 0.74928004 0.4406346 0.55030966 0.1697034 0.2398843 -0.20836104 1.4885547 -0.7017407
nöd -0.4435875 0.5515894 0.31742555 1.4973947 0.21100721 -0.6297569 -0.96324193 -0.24844913 0.2480086 2.2522774 -0.63702065 -1.3401166 0.4528833 -0.5624047 0.65502393 -0.34418213 -0.4786159 0.51422316 0.43728396 0.7391195 -0.35025167 1.2301111 -0.116890095 -0.48724705 -0.19143602 -0.5362296 -0.40869477 -0.088863336 0.83079594 0.28650182 0.7671677 1.414725 0.8396559 -2.1550944 -2.5647824 -1.7983398 1.1953226 0.81833524 0.7910759 -0.41614428 -1.065887 0.113982335 0.73608243 0.07961584 0.2488299 -0.54721904 0.32236427 -0.44396192 0.16770084 -1.1747804 0.93601316 1.0186752 0.114049844 1.7024059 0.510359 -1.6420039 -1.1432168 0.5418287 0.9159786 -0.78716457 -0.9913252 -0.9921042 -0.88919044 0.39521402 0.9778509 -0.7069522 0.81073904 -0.75890374 1.9882749 0.27869225 -0.24022381 -0.22689173 -0.3823527 -0.34141564 -0.349878 -0.3216642 0.03980963 -0.9453296 0.80785257 0.779758 0.16755107 -1.4469993 -0.7160473 0.1690274 0.96437335 -0.47122788 -0.014657835 -0.16382548 0.49581772 -0.9907099 -0.5768953 -0.7398108 0.2520228 -0.77380186 0.5641368 -0.67002046 0.75139093 -1.0790315 0.5767906 -0.11173867 0.06856233 1.1688037 -0.27683887 -0.24419719 0.8323577 0.7618635 -0.51255924 -0.17862375 0.7982954 0.79854894 -0.3225436 1.2370901 0.6101296 0.9585787 0.9840534 -0.38785726 1.0039989 -0.33858845 -0.2734233 0.61793333 -0.58425075 1.0222045 -0.16056815 0.4616733 1.0908045 -1.7455902 -0.90706766 -0.78015226 -0.21303032 -0.2540375 0.14585008 0.44434565 0.5684351 0.25020844 -0.22621676 -0.0961435 -0.43011332 0.46440476 -0.8496872 0.4210371 -0.81711566 0.37442926 0.16882458 0.69740546 0.5533403 -1.1403425 0.105502814 0.074565426 0.81197006 0.6927825
mi 1.2878884 0.6404027 -0.84934926 -0.42133227 -1.3856103 -0.7172054 0.39055914 -0.8592082 -0.1998129 -1.4139093 0.47716364 1.2027768 -1.3763564 -2.6408515 -2.5878925 -0.9307286 1.3907939 -2.299158 -0.94580615 0.10410207 -0.19551343 2.558495 1.3899066 -0.4495283 -0.11678819 -0.11013466 0.1526678 0.53431433 -1.5132289 -1.410298 0.3529042 1.3024781 2.054767 -0.798465 1.4765213 1.0394002 1.2307851 0.6779754 0.18443863 -0.49135578 -1.0124009 0.67419994 -0.58730793 0.18784802 -0.99087644 -0.80137295 0.733524 -0.5290302 0.08931369 -1.1464263 -0.79276425 0.79536796 0.31867617 -1.4708025 0.12981991 0.63809425 -0.07705483 0.024298029 -1.2025207 0.24478582 1.2833062 -0.80432236 -0.82160413 -1.0205119 -0.5601739 -0.8003408 -0.46531096 -0.2918251 0.16257684 -0.40881637 1.2682953 -1.3725935 -0.97983754 -0.2753687 0.4884143 -1.4300374 0.6311169 0.60118747 -1.147802 1.1586443 -0.7032893 1.0614004 -0.85990787 0.7222818 -1.005449 1.6400541 -0.61216927 -0.2100396 1.6341708 1.0372071 -0.01998475 0.45906153 0.21119386 1.8446385 -0.94954765 2.042884 1.1390638 -2.232571 -0.3885537 -2.3218546 0.088136494 -0.3660397 0.39764205 0.13701677 0.4057317 0.19607757 0.1879741 -1.3844697 -0.16328454 0.94238126 0.54590505 -1.6125965 -0.19830973 -1.100209 2.1046848 1.1705192 0.35771066 0.042864796 -1.3239802 -0.20299557 -0.9611018 0.36297336 -0.50054604 0.2253562 1.2243373 2.0830183 -0.6771229 0.08188126 -0.7654903 -0.38527578 -0.642926 -1.3814585 -0.6730087 -0.4076386 -1.2359755 0.090297885 -0.5373742 1.9986182 -1.210684 -1.0027052 -1.2682507 -1.8565637 0.38132685 0.50937986 0.1494409 0.67586577 -1.3035666 -0.66467243 -0.123752624 0.4238123
mer -0.3369382 0.5595931 0.5842455 0.6122096 -0.12612554 -1.1548501 -0.44893909 0.78480506 0.8509419 -0.7034665 -0.5700462 -0.00012355781 1.125871 0.08979297 0.87906593 0.03366912 0.6010416 -0.09032854 0.50364506 -0.018756092 0.890832 0.59611094 -0.8878902 -0.33511764 0.4024253 -1.3121686 -1.6436692 -2.0431492 1.501575 -0.62205845 0.5026011 0.14043348 -0.44279334 -0.67019534 -1.1453743 -1.2732759 -1.0212353 0.35485128 -0.6170145 -0.11516441 0.3908915 0.6611614 -0.05480075 0.49587783 -0.92800343 -0.6092817 -0.09551138 -0.49159417 -0.30393544 -0.51157755 1.2659556 -0.48444906 -0.064226784 0.328496 -0.51307696 -1.0097075 -1.6607761 0.75825423 -0.50105345 1.4785297 1.6415467 1.7449 1.2366122 -1.2499216 -0.6037696 1.3176711 -0.604697 0.6672888 -0.047281407 1.7036581 -0.69286275 -0.42821065 -0.5717742 -0.23396324 -0.47643337 -0.65672964 -0.85324925 -1.0856496 -0.6558876 -1.4907261 0.16182742 -0.33596256 -0.1147453 0.80241424 -1.0173005 0.07552205 1.4955578 -1.426826 -0.4170054 0.98403794 -1.9527445 -0.84917533 -1.1557351 1.2569815 -0.47267756 0.92001283 0.5643197 -0.8046529 1.5646935 -0.71485305 -0.5664197 -0.2592639 -1.3197054 0.33343342 0.7906506 0.18082304 0.8042233 -0.065970466 0.58903444 0.52802855 -0.72179663 0.42109495 -0.48522764 -0.8745262 -1.3602995 1.1649488 0.39919013 0.81699574 -0.5033913 -0.62026584 -0.8871645 0.2863176 0.402696 -0.4712234 0.52130157 -1.3056871 -0.34987572 -1.053545 -0.17004065 1.6427573 0.42057627 1.9436781 0.43736905 0.71091706 1.4284822 0.6062595 1.3525456 -0.34396708 -0.85060716 -1.0907192 -1.3711519 0.7929398 -0.17323382 1.8078661 0.99976337 0.11054988 1.0660074 -0.6468848 0.52437234 0.37135023
im 0.48417333 1.2329514 -0.29406682 0.11727391 -0.017861633 0.96158403 0.21632408 -0.33181906 -0.6947286 -0.29912138 -0.3563365 -0.09058748 0.11049175 0.8719049 0.5527518 0.63192874 -0.87915987 -0.113842644 -0.09250323 -0.8431542 -0.5961615 1.0948893 0.8115163 1.134305 0.27329054 -1.2854391 -0.6212783 -0.22907795 -0.32912672 -0.6390178 -1.2730429 -0.51294345 0.0024311815 0.92891526 -1.3600125 0.511883 -0.9296617 -1.4052124 -0.9781987 0.043107733 0.085765764 -0.45727253 1.2573897 1.4757447 0.94852275 -0.08515144 -0.34661144 -0.6003066 -0.9335862 -0.5769241 1.5109254 0.7024585 0.39031985 -0.81004906 -0.21572527 -1.1911206 0.49506882 -0.16938595 -0.61843425 0.24082974 0.5514421 -0.095640436 1.3660629 0.5612529 -0.43299115 0.39713243 -0.66061604 0.11558822 0.59376025 1.0288885 -0.1485535 0.5123179 -0.27954426 -0.80641246 0.17738381 -0.7796821 0.088249266 0.21518613 1.079549 1.0957998 -1.4164337 -0.28632268 -0.25389224 -1.2820773 1.2830534 0.2875793 0.7141958 -0.8357083 0.16107433 1.0990359 -0.48081177 1.4734879 0.87975603 0.6992859 0.6708177 0.4623043 -0.6679879 0.57689697 0.28538772 -0.7627569 0.6992357 0.3562491 0.010910367 -0.030427948 -0.8656951 0.8076794 1.1316464 0.14376533 0.8950767 0.18565014 -0.6463387 0.19217537 -0.31104898 -0.039457824 -0.1348279 -0.8321169 1.1470472 -0.406636 1.077595 -0.09035236 -0.84988546 -1.5207697 -0.2912227 -0.6734499 -0.5494756 0.018720167 -0.7236459 0.28615615 0.1565759 0.8017961 -0.6502825 0.043479238 -0.48876837 -0.24607235 -0.16769691 -1.0261289 -1.0186673 -0.6659016 -0.59138614 -1.0732812 1.1664591 -0.23734382 0.5932144 -1.1169177 -0.38772094 -1.1452 1.1703075 0.6046238 0.9559812 -1.1129607
mal -0.93278354 -0.48814076 0.25179744 1.3379387 -0.9968248 0.6174748 0.88010836 0.8699267 0.38012585 1.1018981 -1.3634466 0.727418 0.14793105 -1.6834003 -0.679262 -0.29333726 -0.89264345 0.40927336 -0.5525829 0.93497074 0.7140818 0.4822052 0.36874405 0.28767365 -0.28556502 1.5719875 -1.5428922 -0.055160686 -1.0098236 0.8413536 0.5865223 0.7160966 1.6663728 -0.65891355 -1.1627777 -0.6084237 -0.25622258 -0.3445999 -0.20398232 0.08548741 -0.54034346 -0.12036801 0.19872397 1.0209297 -0.6621444 -1.1055841 -0.20865178 -0.7773529 -0.34125206 -1.2321995 -0.44612506 -1.3481734 0.3701582 -0.060679473 0.28375193 0.6232564 -1.1045469 1.5876956 -1.2327085 1.063565 -0.379058 -1.0275352 -0.2359662 -0.5701838 -0.64323086 1.2283899 0.65362275 -0.6030647 0.43512377 -0.77112174 -1.474537 -1.2693486 -0.1813531 1.0559466 0.5578712 -1.9531914 -0.34292945 0.11799426 -0.3255539 0.6048345 0.44068494 0.027395666 1.574681 -0.069147125 0.06931214 -0.04097494 0.37967142 0.45284092 1.2446059 0.16452636 0.31536666 1.5692793 -0.5186434 0.035394013 0.5297581 0.5027386 -1.0566659 -0.13849671 1.4555573 1.0326927 -0.5995812 0.94003075 -0.32397813 -1.2283883 1.0501434 -0.054215327 0.22360446 0.28783756 0.5827753 0.2763034 0.23852926 1.2777832 -0.17730087 -0.5676372 0.84329164 -0.060255807 -0.25342637 -1.0580289 -1.0007874 -2.0219584 0.75781745 0.45697922 -0.17647287 -0.36699924 1.9202013 -0.7425606 0.047132198 -1.011302 -0.51844954 -0.4751457 -1.156187 0.9179174 -0.19437395 -0.92076284 1.082006 -0.559931 -1.0820211 -0.51395917 -1.2460479 0.33396986 -0.7619613 -0.10672822 0.7978062 -0.21652456 -0.16275968 -0.2766601 -1.7180551 0.4006254 1.1801168 -1.4196247
bin -0.96230835 0.4788322 -0.30840245 -0.53360695 -0.18092483 0.52150035 0.43297446 1.0046718 0.4480732 0.12540883 0.8956213 -0.81427234 -2.0748787 1.4349899 1.1120293 -0.42700547 -0.08946883 -1.0650566 -2.004543 -0.2120311 -0.3241402 1.2927794 -0.6853274 0.52871025 -0.9423586 1.2941983 -0.38289028 -0.97796273 -1.5831901 -0.40910006 0.46600795 0.4619825 1.2914177 0.7417462 -0.93704766 0.32541284 1.1445476 0.16286066 -0.17605995 -0.06968708 -0.7349747 -0.50535506 -0.58122677 -2.2575314 1.3864434 0.042654786 -0.16908859 0.14837691 0.99331206 1.044778 -0.3673634 0.281783 1.4887313 -0.10329284 0.029614812 -1.8810272 1.1319212 0.91499734 0.29104033 -0.6461672 -1.370319 -0.5891575 1.1488664 0.94232213 -0.8966027 -1.1983138 1.0521859 -1.6448935 -0.44319734 -1.1181307 0.054585274 -0.12023937 1.6218138 0.6066246 -0.6592384 -0.08253471 -0.73538023 -1.1332467 0.10263263 -0.15590796 -0.012825546 0.94028234 0.58396345 -0.17252046 1.3116685 -0.54466474 -0.022112252 -0.96691316 0.030859716 0.2107957 -0.013541471 -0.19500718 0.45118555 -0.05848003 1.0033726 -1.2561296 0.2215811 0.96114415 1.8532424 -2.2627819 -0.45237225 0.6622886 0.2280389 0.3482017 -0.100469425 -0.05689024 -0.51188433 -1.0245874 1.4954787 0.24955308 -0.96736854 1.2629956 -0.6964033 -0.6394121 0.77792263 1.1412787 1.105012 -1.3206825 1.3757529 0.95983213 -0.6921102 -0.25596517 -0.6160595 1.1137425 -1.1903104 -0.9714962 0.54590464 0.35351637 -0.3098212 0.6367141 -1.1546756 -1.5778909 0.2509249 0.6503404 0.16562687 1.5209686 -1.781516 0.25342315 -1.70944 -1.9763652 0.29821938 0.078980714 1.0409225 -0.11925807 0.69172186 0.050781354 -0.9294091 -0.01499707 1.5306419 -1.1649258
dä 0.6200244 0.8511863 -0.899907 -1.20785 -0.09889763 -0.3996865 -0.18264438 0.74772453 0.9685013 0.35138464 -0.18760498 -0.12481991 -0.10352887 0.007149812 -0.095759206 1.0550957 -0.5753351 1.1399788 0.27995393 -0.30550912 0.3695952 0.8847472 0.53455746 1.4556472 -0.42782688 -1.3134243 -0.6763039 -0.118072115 -1.2195864 0.14251837 -0.71964425 0.0037791098 -0.106954485 -0.6689289 -0.7970752 -0.27402854 0.9839358 -0.113227636 -0.8200572 1.3318816 1.1156559 -0.23233259 -0.9002515 -0.084708855 0.94980234 -0.97533435 0.34036297 -0.17612886 -0.4307134 -0.1594542 1.3989544 0.39942536 -0.4769374 -0.58723265 0.5694871 0.666021 -1.0210512 0.26486817 0.94785464 -1.4693133 -0.87291545 0.5452486 0.12105859 1.8218948 0.1845453 0.4057218 -0.24053077 -0.048488922 0.8237246 -0.544236 1.4137988 1.3032776 0.05429075 0.36457247 1.7415075 0.19389738 2.2790926 -0.25814354 2.4490402 1.0478178 -0.7672152 -0.9652538 0.5871689 -0.6276189 0.38136223 -0.3125255 0.35921806 0.2392731 0.9784237 1.2453468 -0.7793736 0.7770211 -0.12478496 1.5035019 0.44055712 -1.083319 1.5525783 1.0581992 -0.9788112 1.456873 0.6819447 0.27528754 0.61080873 -0.18308298 -0.73532164 0.9198681 -0.6377733 -2.6420202 -1.4540371 1.5553966 -0.082712404 0.4663436 1.3850545 2.1117582 -0.38770783 -0.88089705 -1.3134248 -0.1043275 -0.30903795 0.57186 -0.053014766 -0.8201097 0.91246873 -0.5584832 0.7243089 -1.5439811 0.3319736 -0.27073607 0.20861131 -0.23976372 -0.62935835 -0.7793502 -0.19059041 0.653114 0.05352987 -0.6241906 0.31108367 -0.36160958 0.63562876 0.39196122 0.27166745 -0.3207769 -1.4931637 -2.011095 -0.4582847 -0.682287 -0.31160358 0.4554345 -0.14957136 -1.0294753
für 0.47112182 -0.30879882 0.66399705 0.24055906 0.13904916 0.39463148 -0.2255278 0.046412867 1.4468932 0.47413382 -0.16608821 -0.8035865 1.7377353 1.4139234 -1.5772239 0.1607688 -1.6291023 -0.042753655 0.77737784 1.0455546 1.7709236 -0.26113996 -0.22429141 -0.2083886 -1.9622662 0.58305335 1.3092569 0.54759943 0.51987743 1.2959204 -0.21651979 0.64910764 0.07980787 -0.4820084 0.06925947 -0.7452149 0.6905311 0.2580459 1.7481091 -0.48127103 -1.2588459 -0.5463397 0.75720775 0.8490936 -0.3317004 0.08318418 -2.1323469 0.18789268 -0.80238885 -1.6660304 0.27507436 -0.37645793 -0.3575742 1.5424335 -0.770585 -0.16817091 0.523196 0.36603886 0.90796727 0.16409424 -1.5559058 0.26258948 0.3176045 -0.10180234 -0.85618883 0.9045178 0.6448079 0.006771649 1.2397165 0.14597102 -0.6499305 -0.82601315 0.52967286 -0.0817493 0.6688234 1.1344899 -0.30852336 1.2788032 1.2308086 0.08471045 0.63376516 0.1662566 -1.2777054 -1.0418236 1.7271485 1.1194047 -2.1017642 0.34256357 -1.7081237 -0.42498136 -0.10459635 0.92497313 -0.6372216 0.47502485 -0.6504882 1.8823104 -1.0906847 -0.8242313 -0.9070564 0.3426938 1.1369762 1.4712746 -0.18929836 0.2343645 0.90102434 -1.0751568 1.3735168 1.3365592 0.100132324 0.660308 -1.7745036 1.382101 -1.5318066 -0.2086653 0.13632712 1.1531475 -1.5116205 -0.7202905 -0.30056065 0.87870115 0.78239065 -1.136845 0.29316884 0.56781894 1.6122983 0.044082195 -0.31297684 -0.6074597 0.32397658 -0.4169222 -0.08850808 0.50351256 1.6468838 0.09049545 -1.188444 0.06092727 -0.9139549 -0.4004525 1.3838582 1.6156164 -1.4821733 1.4592955 0.45600256 -0.56482595 -0.8067908 -0.594609 0.527399 0.9671521 -0.3402701 0.7611557
go -0.1412983 0.8475888 -0.7947579 -1.2672548 -0.21424235 0.28934932 0.940658 -0.4438628 2.1387286 -0.992791 1.1555619 -0.24912314 -1.9572742 -0.18509567 -0.85989153 0.15532245 0.5649823 -0.43330985 0.058898002 -1.3199323 -0.29896402 -0.18991666 -0.27211198 -0.4431736 -1.3062209 1.4601678 -0.43808675 -0.09452863 -0.55137974 0.4428077 -0.18093114 -1.1040803 -0.8105968 -0.95167494 0.5121556 1.0842469 -0.7533438 0.38406277 -0.46819085 -0.41082266 -0.030837659 -0.46600032 0.95551324 -0.28396067 -0.58837634 -1.0208584 1.0598071 -0.00094227627 -0.58229256 0.3321322 0.20213692 -1.939953 -0.3951145 -0.18801351 0.18805768 -1.356212 -0.28044313 -0.009852026 0.089840434 1.0122849 -1.5290557 0.85957974 -0.8581983 -0.633443 1.1230944 0.17272334 -0.33952433 0.6868703 -1.136088 0.18215248 -2.816656 -0.5801151 -0.9240933 -0.4718984 0.67209536 -0.036241513 -1.1402181 -0.40987232 -0.44614786 -0.18972066 -0.7784714 -1.6638337 0.2483564 2.020843 -0.42068475 -0.21786436 -0.17165643 -0.34039634 1.6438295 -0.75157076 -1.9776984 0.47311857 1.868851 0.54401404 0.49664363 -0.15684801 -1.9488345 -1.4583335 -0.8229607 -1.2546375 0.8411642 0.6934435 0.31288692 -1.5375197 -0.5003151 -0.65914994 -0.35999915 0.5029323 -0.865209 0.87941927 0.0756981 0.2748846 -1.2991786 -0.2333972 -0.2750115 0.22690289 2.6825829 -0.10892576 -0.3083801 -0.4366218 0.9169706 -0.15370362 0.094622396 1.4991474 1.0873748 0.2753918 -2.54566 0.44621208 -1.0462499 1.3875155 0.034166224 1.2402799 -0.08961424 0.30024806 -0.21264784 1.4438353 -0.8194459 -1.0823305 0.18951516 0.40402701 -0.8790134 1.1525106 -1.0169187 0.44077548 -1.2459275 2.153369 -1.0100739 -0.5996009 0.7836397 0.51814294
denn 1.1835694 1.3903971 -0.0084721865 0.28741315 0.3577662 -0.32477745 -0.2886582 0.660372 2.2350767 -0.5311576 0.506484 -0.16862287 -0.5314801 0.12841812 -0.11296424 -0.31066498 -0.10700939 -0.24550852 0.32388806 0.27668142 0.8349544 -0.51008904 0.3474503 0.40159655 -1.5276694 0.6991697 -1.5090773 -0.099619076 0.79230666 -1.9160607 0.36602706 -0.9852066 -0.1076325 -0.1113466 0.6970451 0.049448106 0.83334863 0.19592065 -1.3573507 -0.029361382 -0.23166053 1.6561632 -0.9810085 -1.1845154 1.5807778 -1.2448729 -1.312622 -0.09045226 1.5899336 -0.3310297 -0.1429713 0.14572477 -0.89409876 -0.77296424 1.0187212 -1.5593861 0.5585417 -0.121961236 -0.8935861 -0.03234711 0.026107626 0.17493951 0.12035557 0.24028504 -0.5577329 0.61737764 -0.5334164 -1.1078967 -0.89608616 1.3605504 0.37492535 -0.97056144 0.08629876 1.1107054 0.56980157 -0.522155 -1.0679706 -1.3359388 0.25934923 1.0380712 1.4239494 -0.25414124 1.2983768 1.2230262 0.47220945 1.0590489 -0.04113029 0.030511927 0.13751644 -0.41791075 0.42626026 -0.8293692 0.3275759 -0.032126583 0.49470228 -0.82857525 -1.4365897 -0.41552016 0.8814176 -2.0680003 -0.5686693 -0.26521558 0.0017457582 -0.1987373 0.88249415 0.5505695 1.1429625 2.5062385 0.8209891 1.0997258 -1.0212257 -1.0962307 0.0016483233 0.016699925 1.0386211 0.32130396 1.2131857 0.5748286 -1.0402277 -0.80572945 -0.47748172 -0.18998536 0.32883006 -0.22418077 0.3621718 0.17355841 1.7809263 1.7325261 -1.3072895 -0.4385038 -0.637079 0.48191938 0.8454573 -0.5428227 -0.92828685 -0.28156364 0.046895947 -0.8024188 0.19831297 0.17302452 -0.2085643 -0.2510549 -0.6550535 1.5015011 0.40397778 -0.88762504 1.0963032 -1.4047107 -1.8917207 0.7438992
was -1.8037944 0.27503598 0.29197004 0.7093956 0.14843579 0.84857476 0.6750128 -0.73258555 -1.5136108 0.6173087 -0.38985267 0.3445431 -0.22743033 -0.014295589 -0.93710816 -1.4936057 -0.32363826 -0.3536922 2.1418273 -0.6935029 -0.86553115 -0.29427806 0.26530215 1.7289454 -0.70890385 0.10030634 -1.1367369 1.4559331 1.1499773 0.12645406 0.058711722 -0.73853004 -0.016410459 -0.09223255 1.5646137 -1.0431395 -0.9435188 0.7918723 -0.28870156 0.38997287 0.34104243 0.35182598 1.3355744 0.74265563 -1.2358654 -2.3430834 0.90955704 0.15045598 -0.56751364 1.2227437 -0.1572069 -0.5992222 -1.1879388 0.008195814 0.622017 -0.42437795 -0.5197109 -1.0293322 -0.22077739 1.0755265 -1.7238333 0.500705 -0.75688505 -1.7820967 1.2057925 0.61353713 -0.6548269 0.5528389 -0.47336483 -1.1230655 -0.70018464 -1.9504151 0.17450614 -0.4008235 -0.4719862 -0.65529644 1.5537622 1.0170422 1.209543 0.7138242 -0.8534794 0.1319549 -0.18296988 0.2386307 -1.1700001 0.8338321 0.5373898 0.46139503 0.54615456 2.2338939 -0.20035669 -1.201593 1.8362621 1.0118049 -0.45147055 0.88559663 -0.7428149 -1.5836539 -0.17035252 0.17105605 0.40880585 -0.24978372 -0.04423067 -0.36757317 0.7326728 0.9772319 0.43618137 0.36569202 0.9529716 0.5887334 0.82894367 0.12582485 1.6881424 0.50658303 0.45671704 -0.8459271 -0.13781857 0.4678107 -0.20639168 1.4929907 0.6843228 -0.22396901 1.5414661 0.7363058 -0.78004336 -1.512973 -0.53973186 0.31180078 0.1502062 0.915386 1.1918253 -0.7634723 -0.7531024 -1.6017666 0.42614576 -1.4117938 -0.19405651 -0.9419126 -0.39419973 0.42946738 0.057466365 -0.22440304 -0.46468773 0.6650736 1.5084093 -0.8990357 -0.7549063 -0.124402724 1.0303842 -0.24063209
na -0.5809398 0.9581725 0.046374258 -1.4440662 -0.8159805 0.30649757 -0.51055145 -0.49362215 0.22153687 1.1316873 -1.4740033 -0.89729184 0.040444348 -1.4267106 1.2866408 -0.93065554 -0.70977414 0.7623828 0.70173204 -0.01551288 0.6516338 0.21273163 -0.5663027 1.1438851 0.5910034 -0.10272412 -0.5813157 -1.2778909 -0.9118859 -0.032986615 -0.004786908 0.90008426 0.51960135 -1.2383085 -2.9071293 -1.5337056 0.2352504 1.1378139 0.039304353 0.22616546 0.08528123 -0.8497627 -0.2768569 -0.19711776 -0.6568394 0.35513958 0.9822159 -0.5588994 0.76310974 0.7705056 0.66910696 0.11020088 -0.3798064 0.95158845 1.1336312 -0.06898754 -1.9974754 -0.54477775 0.1660561 0.80452025 -1.7439525 0.50595826 -0.68417037 1.5549191 -0.33348402 2.0963833 0.9943107 0.23343597 0.91359276 -1.194754 -0.9902559 -0.75066817 0.017068421 0.64384073 -0.18187621 -1.6863699 -0.30780822 -0.5926934 0.33206102 0.010375026 0.3075825 -0.5935464 0.57690346 0.079271294 0.823512 0.43766588 0.018870993 0.13569781 1.0673977 0.38327447 -0.949003 -0.296106 0.18020676 0.45011774 0.104830734 0.76854414 -0.22461708 -0.25793737 -0.14268865 -0.60671246 0.7381001 0.42939442 0.6387435 0.9008986 -0.7884009 1.1648824 -0.36271673 -0.3066791 0.051148504 -0.6400836 1.3107797 0.4080479 -0.83798987 -0.27156582 0.65246046 -0.7869259 0.18987677 0.9361974 0.78009 0.41771165 0.59412533 1.372785 0.48742157 -0.7058497 0.7283867 -1.235369 -0.17683081 0.6394019 -0.21018046 0.13294132 0.739469 0.7482094 -0.1142192 0.45244932 -0.3837166 0.14600529 -1.0456989 -0.7337759 0.22437638 -0.14195523 0.78257525 0.20472634 1.4076729 0.43535924 -0.8976141 0.57123345 0.15622045 -0.6265228 1.385128 -0.03659643
bisch -0.7397794 0.9296491 0.57149845 0.5771748 -0.6602854 -0.14315625 1.1064317 2.0862353 -0.2971979 0.4945891 1.5040805 0.70596856 -1.1158276 0.95115215 1.9543118 -0.10319205 0.13224624 1.2996503 0.3932881 1.2286167 0.47602245 -0.33496746 -1.1512983 0.1659732 -2.2583678 0.63201004 -1.6045138 -0.043461844 0.14147723 1.102417 -0.43952072 1.4171592 1.1199034 -0.48951322 0.062401257 -0.58861357 0.684531 0.2206849 -1.4520773 -0.32434404 -2.5687675 0.7821541 0.6850777 -1.7308984 -0.07456607 -1.3935887 0.28123528 0.15043873 0.00024572897 0.27073422 -0.582565 0.076804 0.65069926 0.2877623 0.050665375 -0.06332905 0.4800285 0.06574427 1.109182 -0.34143484 -0.66648126 -1.3862628 -1.0910262 0.23816422 0.881771 -1.2357013 -0.43481904 -1.4741297 -1.3176004 -1.5513539 -0.295021 0.9100155 1.1074674 -0.82562023 0.7906887 0.5712659 0.10921131 2.3454227 -0.3097881 0.29545563 -0.52362007 0.70450044 -2.0806403 0.59411377 1.1157348 -0.749282 0.97503424 -0.046303283 -0.037558727 -0.018506857 0.6512954 0.78893256 -1.0059683 -1.3080008 -0.9852798 -0.43701854 0.5156642 2.4664156 1.619603 -0.4934547 -1.5803069 0.023780867 0.58344215 -0.5403636 -1.9407209 0.84150374 0.22338165 -1.7184178 0.25526068 -0.28671622 -0.13269176 0.43412668 0.11276051 -1.1749854 -0.45110998 0.82043445 -0.37776187 -0.032087177 0.6026462 0.5740396 0.045330156 0.03873671 1.1635237 2.4200368 -0.7408422 0.6869067 -0.041365646 -0.322258 -0.774387 2.2587812 -0.8838282 -1.7731841 0.23735042 1.1334312 0.8556071 0.6428463 -0.6684023 1.3301586 -1.2001581 -0.83533615 0.0142532475 -0.012138015 1.2804655 0.08101035 0.46733734 0.16090707 -1.3784968 -0.870181 2.4177382 -0.8406972
glg 0.9513238 0.68979526 0.1322725 -0.03775623 0.055757508 -2.2328045 0.46477062 0.8298513 0.9800041 -0.4576678 1.025047 0.82539296 0.77919847 -1.3932488 0.16548924 -0.883653 -2.034203 1.1611202 -0.05569284 -0.02399572 1.6597351 -0.4402332 0.25941297 0.28585938 -1.802079 1.0728686 -1.6515191 -1.0468525 0.51270574 -2.5486689 0.24411 -0.728079 -1.4731481 1.2543185 1.4495403 1.7404867 0.62029606 -0.01829175 -1.807376 0.113891065 0.14932989 0.28717333 0.53919184 0.9377514 -0.47941834 -0.42476267 -0.12414483 -0.28550917 0.28550074 0.17172839 0.40322876 -0.40313828 -0.5460429 -0.27089843 0.3525459 0.13247293 0.21636003 -0.41590568 -1.2855165 0.6030343 0.12214834 0.10215742 -1.2183608 0.84945816 -0.3310946 -0.2041011 -0.92854476 0.40770754 -0.33856392 0.29654157 -0.26095307 1.4582348 -0.09582769 0.3914582 0.6758521 0.45894876 -0.7247067 0.07376475 0.46498317 0.067312986 -0.6887198 0.6024338 -0.010640252 -0.34350112 -0.07537182 -0.46561486 0.025405599 0.031180272 -1.1054431 -0.6170888 -0.9387445 -1.1848719 0.11641928 0.64882934 -0.7995817 -0.3005935 -0.51364714 0.30114833 0.41946968 -0.22527269 0.43343157 -0.56142557 -0.9382149 -1.2066119 0.23056194 0.22218096 0.42624176 -0.038680356 -0.051320635 -0.6947526 0.62835807 -0.533548 0.06743568 1.564076 -0.45102307 -0.008132167 -0.2217504 1.1893387 -0.43548 -1.0971832 -0.785406 -0.5584229 0.50520384 1.1157602 -0.2896565 -0.7130057 0.9010484 0.76634884 0.12749629 0.6219904 -1.4777037 -0.53479546 -0.049835525 -0.68407243 -0.18685466 0.027012113 -0.612638 -0.62415063 -0.28022516 -0.03628646 -0.39275885 -0.8633545 -1.0911998 -0.89673656 -1.8586756 0.80186385 -0.015908215 0.05870067 -1.8834678 -0.79885066
gsi 1.9124892 0.9135768 -0.4839846 -0.054335684 -0.09796598 0.3594445 -0.4127602 -0.10674133 -1.592391 -0.530177 0.9434282 0.69238275 1.1201367 2.1978254 0.2531238 0.12333038 -0.3861957 1.3032326 0.114297 -0.5327697 0.107660174 1.1696513 -0.26877886 1.099175 0.6896709 -0.54971963 0.7458207 0.41809604 -0.016518958 0.38988882 -1.1271281 1.3569617 0.29161415 -0.28341106 -0.7914987 1.6994143 -1.458908 -0.2760534 0.75843835 -0.49696282 -0.11658917 1.7582449 0.46011317 -0.1304076 0.55114806 -1.3903295 0.39602464 -1.0352423 0.10438962 0.52282584 0.24965361 1.1860207 0.22037123 -1.0715774 -0.77091545 -1.8002477 -0.12709095 -0.5354919 -0.12999126 -0.23021714 -0.14794488 0.033600416 1.1376755 1.3557118 -0.1695207 -0.6605444 -0.8283841 1.4168074 0.6937367 -0.4282184 0.9393639 0.40850452 0.7777794 0.51082 -0.03747314 -0.27932906 -1.0513142 -0.15885724 0.53797066 1.2412927 -0.35796538 0.7535787 0.027176121 0.23099042 -0.66750646 0.46972936 -0.0010883786 -0.26674062 -1.3510044 2.694109 -0.5237222 2.1312854 0.9346285 2.285603 -0.68530065 -0.98303616 -0.7788285 0.5258387 -0.80888605 -0.5856874 0.3260512 -0.10269061 -0.05157426 0.33353627 0.16293697 0.49488476 -0.18836787 0.50105625 1.12908 1.8775933 -1.0881276 -0.42827663 -1.1564169 -1.0376433 -0.68460846 -0.40391466 0.64420885 -1.1628593 0.4549308 0.22431451 -1.6734246 -0.021213477 0.20140825 0.09968715 -0.40297857 -0.07942503 -1.7471814 0.09782506 0.13540988 0.5166569 -0.3668982 -0.54324055 0.302812 0.07210554 1.0288069 0.624128 -0.44123784 -0.020666832 -0.506149 0.22110389 0.40782967 0.29911032 -0.36183622 -0.7393962 1.1047983 -1.2960926 1.2791865 -0.5008017 -0.38491514 0.7998724
hesch -0.46748465 -0.13174884 0.91991496 -0.31977555 -0.91383195 -1.1575861 2.0664134 1.2720724 -0.45268044 1.58359 0.0052964473 2.7053847 2.254561 0.17435588 -1.014793 0.9386252 0.387667 1.8266959 0.51022655 -0.79911816 1.2119042 -1.7140716 -0.9212227 -0.91224253 -0.3296147 2.1910293 0.10091887 1.3960295 -2.0688987 -0.51454717 -0.962215 0.78407997 -0.4924666 -0.76311445 0.9010628 0.32606485 0.32573104 -0.47312644 0.52021635 -1.8947991 -1.9464346 0.4215479 0.63890725 0.40547693 -1.0282606 -0.37228477 0.7974225 0.9491562 -0.5238075 -0.5800736 0.7784789 1.2508757 1.320924 -1.142007 1.2961825 -1.892311 -0.48999837 0.4111238 -0.28237164 0.94615316 -0.4959571 -0.59538394 -2.1365464 -0.92507833 -0.2399335 -0.58818734 -1.0961775 0.12314351 -1.568657 0.05640893 -1.0507481 -0.0447894 -1.069612 0.36591774 0.6564044 0.040762194 -0.43612853 0.024185395 -1.1907291 -0.9958091 -1.747916 -0.7958549 0.43353704 1.4161451 -1.6020333 0.4247537 0.71121 0.34322378 -0.24775888 1.398646 1.8880645 0.7362837 0.045236833 -0.6075915 -1.2418594 0.52140963 -1.3306499 2.1338525 -0.17983283 -1.045093 -2.0287683 1.3765427 -0.5234629 -0.8028239 -0.50078845 -0.18998286 0.7398198 -0.9876927 -0.1597157 0.69225234 1.156169 2.1149375 0.17089546 -1.3775965 0.8122602 1.5654324 -1.4025154 2.0140343 -1.8433206 -0.7306931 0.15919971 0.98282224 -0.25335866 1.6354177 -0.7816339 0.31314236 -0.31562597 -0.940954 -0.3596496 1.2550539 -0.2599369 -0.61737376 1.2885736 0.94207525 -0.4958224 0.043051515 1.089867 -0.53999513 -0.7059211 0.54339385 -0.29012913 0.36639798 -0.09150726 0.4512976 0.24077587 -1.0839242 -0.8438881 0.0069986996 1.1671566 -1.6630889
nid 1.8726945 1.4467618 -0.92216855 0.30960926 -0.029493475 0.9028754 -0.20948945 0.26862195 0.30651096 -0.8708035 -0.45512006 -0.08838128 0.14518806 -0.21763647 1.4410409 -0.48797768 0.24933583 -0.6805672 1.0504789 1.9500968 1.1216978 -1.112953 -0.9935204 0.22270903 0.31966478 0.79967767 0.08439268 0.44620505 0.3943909 -0.7804402 -0.6164305 1.4918911 -0.20817757 -1.7739358 -1.8734827 -1.7624294 1.3320304 0.19242889 -0.5350097 -1.6902819 -1.1131258 2.614855 -1.4183128 -0.5921193 0.35184842 0.9548185 1.6205037 0.58467853 0.4411397 0.013132228 0.04742468 1.1885452 0.2809817 -0.56948704 -0.5513161 -0.221559 0.025576785 -1.0620807 0.47061715 -1.2918782 0.07513799 0.45631516 -0.1743803 1.0380305 0.9659269 -0.5507689 1.1292902 0.67306787 0.8788425 -0.02801419 1.8227704 -0.56742793 -0.92800075 1.3647034 1.8852013 0.9692618 0.2990364 -1.8109778 0.7099416 1.1042049 1.4695959 -1.5534115 0.032841504 0.08451147 -1.761156 -1.0688108 -0.57213014 1.0416757 0.8058738 0.71898925 -0.32630292 -1.3501856 -0.3826304 -1.1503503 -0.3962882 0.46610665 0.8856123 0.7700785 -0.49577457 -0.21335338 0.384282 0.82095903 -0.6043341 0.5864506 -0.39741176 1.3130434 -0.6702347 1.6059934 -0.06931765 1.4862008 -0.5339137 0.3624356 0.27582476 0.8955826 1.0481474 -0.01831262 0.2866249 0.33627 -0.8664878 -0.028586198 -1.3589976 0.686468 0.24103181 -0.1442939 -0.6201669 -0.30420503 -0.95936686 0.53950405 -0.7209586 -0.21826233 0.33351094 0.22529568 -0.1509137 -1.0296111 -1.1931041 -0.8210278 1.9910592 0.52562845 -0.2007931 1.2804946 0.5398673 -0.9810407 -0.67899066 0.6118554 0.10645218 0.13816619 0.59459466 -0.28302574 -0.96798074 1.450024
da 0.19445492 1.4636695 -0.4060677 -0.5125614 0.5934811 0.1626142 -0.38617107 -0.4770374 0.17534314 -0.37871137 -0.7776686 -0.6087579 -0.288302 1.234848 0.2748073 0.053231288 0.57890904 -0.102385834 1.1447341 0.0042544506 -1.2265999 -0.043911155 -0.119949035 0.024739413 -0.6788155 0.21300276 -0.05275349 0.47189552 0.08836287 -0.008507888 0.25823104 0.006096369 0.071056224 -2.0274765 -0.12533727 -0.5737602 1.0079603 0.39917877 -0.885013 0.11729777 -0.27446193 0.8200309 -0.040815197 0.06575387 0.82385254 -1.936441 0.92844117 0.13982451 0.1724379 0.56334215 -0.30637088 0.9148001 -0.66610825 -1.4396485 -0.092969716 0.532075 -0.29126167 0.043922793 0.38988212 -0.84584993 0.8915676 0.6799054 0.11824234 -0.537945 -0.29253832 0.56797594 -0.60070014 -0.17293777 0.22982639 -0.24588872 0.671519 -0.6814069 0.28792346 1.0609685 -0.1343387 0.23934747 0.3912258 -0.5407313 0.81231105 0.42378747 0.6075513 0.07576713 0.8271375 -0.2700193 0.22065964 0.9465968 0.13937588 0.039333973 0.44026783 1.9293708 -0.009327598 0.13697688 0.5812513 1.0867391 0.2942546 1.2931887 0.55900615 -1.4245381 -1.000293 -0.6059649 0.9376796 -0.50355744 0.3770756 0.6923737 -0.4563015 0.18795909 0.12566431 0.83626217 -0.9838766 1.8596168 -0.37508792 -1.1234212 0.2984468 -0.42295736 -0.16999236 -0.10440662 -0.23837022 0.7437308 0.11593554 0.5523658 0.13858168 0.27891183 1.193539 -0.8877269 0.1235864 0.4800139 -0.45890424 0.020970868 -0.03692291 -0.23661396 0.005295267 -0.113056 0.7921383 -0.6311003 -0.11658442 0.93703103 0.99709356 -0.08762786 1.607966 0.3508891 0.27712694 0.18770865 -1.0814842 -0.92862797 0.87693465 -1.4065826 -0.29382813 -0.9501467 -0.10397142 0.87791073
hani -1.2227607 0.36499542 0.60182077 -1.0566176 -1.0656172 -1.206672 0.84523284 -0.22685593 -0.17794862 0.6316116 0.12398075 0.51236945 -0.53791916 1.3601929 -0.36458853 1.663812 0.30937353 0.75982606 -1.1842115 -0.8113573 0.60427004 -0.3267488 -0.33299482 0.41896832 -0.4969708 1.6042348 -0.0578983 2.7517822 -2.2564778 -0.88225347 -0.73856235 0.6504163 -0.8418286 -0.71967995 -1.4546958 -0.7607453 -0.2787048 0.24643742 1.3272823 -0.25925973 -0.3270387 -0.89600354 0.7703564 -0.5866388 -0.9865542 0.89395934 0.1271623 1.5366905 -0.38084298 -0.38903195 0.70706165 0.23436107 1.1077377 0.40909922 -1.0065923 -2.2497907 1.2995573 0.4308634 -0.46988952 -0.09188474 -0.6122038 -1.871751 0.3409331 0.6525042 -0.49317542 -2.7347112 0.29421437 0.0057816347 -0.40949076 0.18291597 -1.045245 -0.7068222 -0.0152475815 -0.080598466 -1.1015043 -0.13571604 -0.46880886 -1.8046039 0.998673 -1.9055709 -2.4005942 -0.003118721 1.7875159 0.89868796 -0.23840612 -0.753223 -0.2844396 -0.8647626 -0.43295544 1.357626 -0.4769119 0.08597715 0.7246196 0.24482049 0.057393152 0.6908052 0.40440294 -0.55941164 -0.22380318 -1.2716085 -1.1654118 0.615677 -0.8100378 0.48067418 -0.33882585 0.23977542 -1.0116527 0.27006266 0.07060042 1.3423297 -0.9206546 0.8899914 -0.34018016 0.54667556 1.7936294 2.9237988 -0.7526517 1.0181563 0.06880868 0.0412476 -0.7808756 -0.066746034 -0.08245373 0.89551693 -1.0277774 -0.6337104 -1.1256098 -0.35752833 1.5206065 -0.5928064 -1.3012041 -0.89780486 0.731128 1.521709 -1.0598221 1.0293117 1.7503645 -0.60245514 -1.1952237 -0.12848699 -0.9318799 -0.8314597 -0.811043 -1.1010565 0.4470405 -1.0059564 -0.83059865 -0.319906 -0.6089264 -1.2389972
grad 0.5147117 0.934127 -0.9304726 -0.5489781 -0.62547594 0.78516495 -1.4309772 0.10091776 0.26352686 -1.1524045 1.1578383 -1.0083175 0.33838165 -0.022635661 -0.29130682 -0.07831234 -0.103705466 -0.37898463 -0.11955755 -0.5339208 -0.21329668 0.54048604 0.363757 0.74008566 0.44748795 -0.44944018 0.20865749 0.05560515 0.7900142 -0.72634006 -1.0005292 0.35423532 -0.15719952 -0.26193807 -1.0035975 0.22017157 -0.20405188 0.0941614 0.19050546 0.21239468 -0.13747936 1.1693531 -1.2416803 -0.6890619 0.7103431 -0.0519017 -0.6635584 -0.61867607 -0.0789175 -0.39817116 -0.1807838 0.00092959387 0.6369098 0.098997444 -0.11639348 -0.6227494 -0.105354756 0.46847737 0.32122555 0.33505413 -1.085009 0.07169217 1.2720972 0.7594592 -0.39659733 1.4046161 -0.11211475 0.12385808 0.48041597 0.28362483 0.37453488 -0.14121234 0.6474541 -0.55767554 -0.27105856 -0.091680154 -0.10684823 -0.5127533 0.99539506 1.3715168 0.53057647 -0.36915898 0.06067578 1.0197425 0.16773582 0.17134508 -0.2238101 -0.5656573 0.5925264 0.5530762 -0.30854282 0.6746717 0.57649493 0.516018 0.23507056 -0.15424281 -1.0320385 -0.4596704 -0.31306309 -2.055259 -0.3488961 1.6307483 -0.49694508 0.5606949 -0.3110836 0.475666 0.18760176 0.20293207 0.7065167 0.6303576 -1.2323376 -0.046102516 -0.67440677 -0.54753757 -0.022627283 1.3492855 0.7771534 -1.3450927 -0.86657554 0.1657616 -0.20823282 -0.90414417 -1.0766286 0.5406602 -0.070380285 0.9562307 -0.53150517 0.66759306 -1.0494251 -0.16925962 -0.51680416 0.21252415 -0.47704133 0.7924281 -0.87366676 0.10729233 -0.2858844 0.060282998 -0.45969322 0.39429322 0.6245459 -0.399376 1.1891282 1.0672967 -0.3972009 -0.17223984 0.25862557 -0.3004206 1.1301404 0.21116933
cho -0.1099648 0.14017873 -2.0706162 -0.21543285 0.33624977 0.17021458 -0.5636882 -0.9488146 2.0030239 -1.2260574 0.0478463 0.4703712 -0.43205398 0.05903221 0.23171753 0.9174641 -0.36311477 -0.1749909 0.5445695 -0.3623398 0.37959817 0.49853352 0.26438332 -0.6702507 -0.17150037 -1.1378182 -0.11716632 0.63849723 0.4772393 2.1046965 -0.48230892 0.9492019 0.71460825 -0.12775972 -0.062432572 0.07063759 -1.109559 1.3981315 0.062174793 -0.4266498 0.29118124 1.3664826 -1.8309671 0.023104064 0.85333484 -0.009885604 -1.4728427 -0.351469 0.42801133 0.7515125 0.3270384 -0.40389326 0.788003 -0.4664593 0.51815844 2.3332095 -0.21776362 -0.8629496 1.0443616 -0.1791808 -0.027063023 0.08781967 1.0749551 0.8397332 0.54347074 0.81680846 -0.33744326 1.2996321 -2.0511618 2.0051115 0.5391157 -0.08991965 -0.9845271 -1.105872 1.1381425 -0.3392705 -0.17671536 0.6123534 -0.70278263 -0.20232429 0.17036247 -0.6610664 1.3796798 1.0518992 -0.9128951 1.1497691 -1.2290181 -0.66305345 0.29373384 -0.87734663 -1.286224 1.4180763 0.5061256 0.8347395 0.07762532 0.5720846 -0.60666317 -1.2667742 -0.42694038 0.3532161 0.95117664 0.50068307 1.540051 0.16140084 0.5138688 -0.89351624 -0.27587324 0.33659115 -0.5682623 0.1760868 -0.068811566 -0.55625457 -0.075325735 -0.15136203 -0.46004778 -1.5922116 0.58381563 -0.3724871 2.1662073 -0.97317356 -0.90702766 0.5908702 0.8476614 -0.6313791 2.2199426 -0.22105938 -2.3582695 -1.1451272 -0.40658876 1.8537532 -0.46444836 1.61469 0.7606191 -0.28407738 -0.43248025 0.056535486 -0.2970121 -1.0546242 -1.1451612 -0.3031388 -0.2038143 2.0098855 -0.93832517 0.47773924 0.339681 1.9958816 -0.36989883 0.15289415 0.6653237 0.79043067
zum -0.6728218 0.5823286 0.86023813 -0.9602575 -0.77622336 0.754151 -0.27411285 -0.88098174 -0.12927367 1.5100716 -0.68983686 -0.07923043 0.28769612 0.22328545 -0.8257934 -0.82366693 -1.0536349 0.21540922 0.30034795 -0.9707217 0.21270795 -0.8299704 0.21310376 2.183337 -0.015278364 1.7338648 0.20316832 0.33319935 0.3687847 -0.13912322 -0.9829093 0.117589705 -0.087239325 0.47131708 0.12422462 1.0907446 0.23630136 1.1267887 0.7743619 -0.21835177 -0.7366278 -1.9274364 1.1146547 1.1517094 -0.6892879 0.3362894 1.2203664 -0.7500703 0.13610461 0.97543186 -0.49901566 0.43591654 0.38476607 -0.9577443 1.0050218 -2.5495832 0.10816981 1.2127297 -1.2755759 1.4742274 -1.7410007 1.3152419 -0.38393375 1.7095052 -1.0616877 0.47896284 -0.64651006 0.25173053 1.1438979 -0.5173555 -2.554294 -1.8984895 0.124773785 -0.4575378 -0.70920193 -0.6760704 -1.0306282 0.44997105 -0.124787234 0.5491089 -0.28401777 -0.6902367 -1.0993912 0.013560355 0.81689274 0.8092803 -0.49711484 0.1212555 -0.40192324 0.17420675 -0.15174675 0.3104694 0.012939031 0.095683195 -0.69136584 -0.05298207 -0.049326133 0.80836487 0.15424539 -1.1398567 1.2554551 -0.12634139 -0.4467784 1.149163 -0.95337766 -0.6284208 -0.180748 0.69271886 -0.62807715 -0.05503826 0.040889196 1.1369634 0.032086257 0.92537856 0.06371032 0.968976 -0.36010084 -0.3777443 -0.53589576 0.040435843 0.53496176 -0.7198903 -1.3033055 0.11300403 1.4968861 -1.1287936 0.67577934 0.0073917075 0.20376962 0.7584846 0.7356341 0.24181463 0.85614395 1.0126733 -0.79230475 -0.2126058 -1.241842 0.10400014 -1.6046259 0.41290087 -0.06811445 0.8445195 0.6453159 0.27640375 -1.0224023 0.12480051 -0.8496449 0.75426275 1.9781748 -0.22543545
vo 0.33808395 1.1453668 0.8236088 -0.57487017 0.7276411 -0.51239526 -2.4630413 0.20495258 -0.19010545 0.540175 -0.049892798 -1.0085323 -0.8339224 1.7455044 0.76574326 0.14644325 -0.44317985 1.0172374 1.0870694 0.36551434 -0.36404607 -1.0942765 0.1198557 -0.46298364 -1.0560485 0.8182652 -0.54906565 0.5071837 1.3851085 -0.86559105 0.63559407 -0.4922122 -1.5733538 1.2269697 0.8658788 -0.43412766 0.54574406 0.40710738 -0.90832037 0.52027667 -1.4476166 0.5511989 1.1209248 1.1019192 1.5446972 -1.4403191 -0.20552762 0.044442058 2.0590863 -0.55408025 -0.30369696 -0.48211032 -0.011851149 1.5681366 0.8148546 0.89892733 0.26658168 -0.055543385 1.1407055 0.29764545 -0.15415865 -1.6775451 -0.2843355 -0.16920555 0.34568384 -1.1784346 -0.4001618 -0.5135673 0.7802932 -0.050030526 -0.734898 -0.26410758 0.0019558626 0.13461277 -0.9384306 0.20242552 1.0369544 1.4385792 1.424619 0.08610445 -0.47218353 1.7918588 -1.1367865 0.334927 2.014798 0.58433867 0.030587137 0.4231978 0.09924464 -0.16845165 1.2812121 1.041784 -0.41749093 -0.22225824 -0.58970326 -1.5796946 -0.17152917 -0.8246323 1.3868309 1.6651049 -0.8108635 -0.16979034 0.4129718 -0.11433715 -1.2419095 0.3438913 -1.1125165 1.7123022 -0.52844214 -0.46821362 -0.715601 0.94996625 -0.36458585 0.976332 -0.34137586 0.16115527 0.011432087 -0.61748236 0.49063382 -0.5128756 -0.38387144 0.41360918 0.30185986 1.1166984 0.20848395 0.65668124 0.80777013 0.9632934 0.15214248 0.36466196 -0.45674473 0.5379197 -0.008038985 0.116033904 0.26794913 -0.5290581 0.60508084 1.600869 0.18885979 0.45911863 -0.20944881 1.1579982 -0.4686452 0.8798965 -0.124633096 -1.5196668 0.6803638 -0.08237844 -0.08959333 -0.3683574
in 0.43912494 1.1062827 -1.0932453 0.0048188386 0.8344787 0.4938884 -0.32539952 0.8449248 1.0604274 -0.10366871 0.17703032 -0.804433 0.20525923 1.3203118 0.30972505 -0.1298171 0.4562976 -0.18743095 0.402443 -0.45238772 -0.33392867 -0.5385929 0.57827884 1.1675578 -0.3583262 -0.22558632 0.08381198 0.7008469 -0.40054187 -0.7595149 -0.32350832 -0.2406568 -0.23948623 0.33598337 1.4649073 1.726589 0.07060378 -1.2152842 -0.5334896 -0.19354755 -0.80688924 0.007297758 0.97434735 1.10354 0.53167945 -0.14416821 0.56087095 -0.1697157 0.026135646 0.65180457 0.5824401 1.1357791 0.26539204 -1.1854697 0.5048868 -0.81547225 0.79175067 0.89166015 -0.17931232 1.0044454 -0.5374726 0.39720386 1.2914577 -0.74446934 -0.20939854 -0.08601226 -0.4950906 -0.23990385 -0.2578372 1.0284 -1.728272 -0.4158956 0.08480694 -0.6309846 0.26553294 0.56674784 0.66385746 0.63264096 1.1804758 1.3048505 -1.2954792 -1.1798092 -0.9721673 0.21753867 0.45940286 1.5118122 1.1786671 -1.0694621 0.096142806 0.8916329 0.30120242 1.1874297 0.050816428 1.1108773 0.2229616 0.9342972 -0.63908947 -0.9529198 0.23130059 -0.70666754 0.38620207 0.37988243 0.3150206 -0.084482245 -0.8720901 -0.69364184 0.06631827 0.6720838 -0.8092518 -0.50434214 -0.067426324 0.43578407 -0.3760472 0.58309644 -0.79465884 -0.9403939 1.8725759 -0.10641896 0.13968723 -0.60732216 -0.2907516 -0.4366573 0.5953533 -1.136104 -0.4620029 -0.16062231 -0.7382425 0.9617596 -0.67294693 1.3989632 -0.9072661 0.39211988 0.9035286 -0.3299417 0.086751446 -0.10700581 -0.8029147 -0.5169589 0.61859083 0.0023405896 -0.4655787 0.16304825 0.6242202 0.7727058 -0.07385276 -0.6241955 1.1608124 0.49738666 -0.16562577 -0.2750844
ned 0.2526269 0.25536966 0.19636174 2.036298 0.07027021 -1.2385683 -1.0566632 -0.6236338 -0.045264553 0.16716038 0.79442763 -1.2429076 1.0403101 -0.30174392 1.281559 0.4179483 0.82561696 -1.5221447 -0.048097838 0.06132745 -0.6025042 0.8614166 -0.72903067 -0.34546474 -0.6585091 -1.1441628 -0.89224774 0.31226355 1.6801844 -0.23422244 -0.7438219 1.3036638 -0.54479164 -0.8775738 -1.1285647 -0.11320094 -0.4596547 2.0609272 1.0922067 -2.451323 -1.1685641 1.9419068 1.5838022 0.36931518 -1.1133605 0.78752184 0.8191735 -0.5723613 0.5929269 -0.19772877 -1.461782 0.82389295 0.8762632 0.98385674 -0.7180304 -1.0517191 -0.98256636 0.41424137 0.48834634 -2.409469 0.66681135 -0.83597517 -0.19661914 -1.4697751 0.025354985 -0.93421656 0.06749181 1.2691664 -0.41998857 0.36669987 0.098781 -0.348161 -0.7971769 0.28144684 -0.96170616 -0.16448957 -0.1999512 -0.40077633 0.16444065 -0.6891145 -1.1074765 -0.23890586 0.644619 1.1653453 -0.7005587 -0.77778596 -0.73258877 -0.80800825 -0.6195446 -1.5205568 -1.9018527 -1.0563823 0.40070796 0.45969158 -0.9983448 0.37318236 0.105712354 -2.9902546 2.279583 -0.086558305 -0.66665936 -0.35220903 -1.0929595 0.89810586 -0.7887953 -0.25565845 0.17268237 1.1520089 1.0087155 -0.30190307 -1.2363634 0.12910768 -0.21945661 0.3023289 -0.14601932 -1.2985994 0.8601769 0.44305024 -0.6102718 -0.17936008 -2.4466145 1.4047346 0.28929546 0.55282766 -0.8475636 -0.8991528 -3.835263 0.4639443 -1.7924439 0.9436871 -0.5113779 0.86855596 -0.70388323 -0.4477489 -0.023862546 0.34123614 0.26925018 0.373042 -0.93952566 -0.5850482 -0.07134772 0.69621724 -0.43875125 1.9081185 1.7708497 1.4005814 1.0569085 -0.046924483 1.556778 0.40076837
oder -0.9742329 1.5024433 -0.31346494 0.55785847 0.97807986 0.7544434 -0.12076862 -0.38899672 2.0309842 -0.22065975 0.59334767 0.08703959 -0.5100416 0.043726176 0.14596264 -0.036171217 -1.389987 -0.5983323 1.6913553 0.67241937 1.0129045 -1.1924257 -0.24808478 -0.6686315 -1.3873188 -0.48821172 -2.1697838 0.65397245 1.6969633 0.5138991 0.22855482 0.36121345 0.14915904 0.3843749 1.0693306 -0.92018515 0.48699105 -0.01900867 0.21015996 0.42455402 -1.0337021 0.52384144 -0.68935037 1.0916955 -0.18414082 -1.2324816 -0.6545854 1.0948197 -0.2100186 0.17784123 -0.666881 -0.85216683 -1.1874825 0.07998477 0.47310203 0.055718016 -0.32781017 -0.5099375 -0.517368 -0.12839167 -1.8780236 0.28027016 -0.46299252 0.15467493 1.0938753 0.8140189 -0.6275114 0.40348837 0.4979831 0.10269257 -1.6845244 -1.2355767 -0.8079345 -1.7204577 1.3881915 0.19635509 1.1233897 0.20120683 0.31396514 0.6137369 0.5402996 -0.42508614 -0.85186404 0.48174933 -0.08427834 0.6617507 -0.45629078 -0.9326907 -0.7190748 -0.03549119 -1.5367622 0.97098094 -0.42376977 -1.1394143 -1.1616788 0.56554216 -0.5203377 -0.3040763 0.9196522 -0.29257315 -0.10556313 -0.80680865 -0.16414785 0.08318927 0.1578386 -0.639888 1.7673894 0.5059056 -0.659236 0.5386964 0.3748394 0.44452482 1.1119939 0.6305612 -0.29778835 0.41549465 -0.22522323 -0.07951845 0.037063036 -1.2946172 0.43130776 0.23128675 1.033859 0.5466259 1.3404998 -0.4487147 -0.96594125 -0.028581893 -0.673565 1.6348618 0.0922473 0.3882481 1.4079566 -0.2842051 -0.30034366 -0.7837622 1.0782403 -0.19228801 -0.31872603 0.30471504 -1.7079494 0.80073476 0.69292814 1.2579627 0.5719284 -0.37175325 -1.2820076 -0.061015576 -0.93738115 0.41067892
abr 0.4237947 0.14324632 -1.4122303 -0.006216891 -0.15562852 -0.029514931 1.0689558 -0.52303034 0.23282261 0.6872331 0.15087815 -0.5767202 0.52740985 -1.8784219 -0.02949604 -1.8232784 -0.6101714 -0.48138797 -0.13351113 -0.7500226 1.2119 -0.16494495 1.0235027 1.7231648 -0.23964825 1.075855 -0.58340263 0.30200362 -1.7794846 -0.33903965 -0.6660235 1.6150445 0.6626741 -1.0238107 -3.0503454 -0.08727471 -0.2844859 -0.5417878 0.3739741 0.3712771 0.48181608 -0.035886332 -0.07516391 0.16166787 -0.6825161 0.62981176 -0.8544264 -0.94785756 -0.3543624 0.8316278 -0.013638388 -1.0566235 0.5515043 -1.2248703 -2.1616845 -0.41163677 0.4129811 1.6413496 -0.602078 0.08882408 -0.3549081 -0.72459763 1.1022274 0.08954578 0.7787443 -1.2804017 0.25570914 1.0328336 -0.3115628 -0.82885814 -1.1809838 0.016994478 0.2108556 -0.28072083 -0.41153103 0.75721407 0.12557308 -0.3019738 0.66808367 -0.12606989 -0.40915203 -0.96303463 1.4075923 -1.1147002 -1.2032567 -1.5074072 -0.26486105 -0.37120575 -2.1768868 0.054606847 -1.090259 -1.3645941 0.80330694 0.9700813 0.031848624 2.2672276 0.80904007 -0.7802404 1.2514054 -1.6994134 -0.11723474 -0.18177445 -2.3549316 0.63394237 1.7782925 -0.65028375 -0.048881534 0.6791588 1.5988269 0.7221608 -1.3074683 -0.076046325 -1.624348 -0.4554886 0.014581962 -0.7896456 -0.840368 0.8573392 -1.411497 1.1186677 -1.1855526 -0.5455254 -0.7457756 -1.3036945 1.4144796 -1.112475 -1.4259983 -1.1243848 -0.5921597 0.3982662 -1.9237765 -0.7261908 0.68460864 -0.10113123 -0.06978683 0.11544631 -1.6869782 -0.9286246 0.11320329 0.29062107 0.5973905 -1.4395297 0.07260696 -0.80813855 -0.24538937 0.7716532 -0.5896361 -0.73712933 0.9540562 -0.18454324
abig -0.5809553 -0.0090776775 0.56724197 -0.5615173 0.11630679 -0.24217477 1.0512801 -1.0886098 -0.93215996 2.5763113 -0.46443084 -0.13877378 1.3810668 -2.5000517 -0.19193098 -0.9196925 -0.2177532 -1.2436256 -0.54944056 0.12833157 2.0268064 -1.1520997 0.60560286 0.5355905 0.79387575 0.35796428 -0.69368726 -0.282315 -0.50170285 -0.18760309 1.0445588 1.3266039 -0.34332287 -0.4209693 -1.2521328 0.18092242 -0.28981617 -0.4813696 0.21154413 -1.1228253 -1.2294037 0.28772342 0.5304981 -0.047942076 -1.39687 1.164868 -2.0524125 -0.46753672 -0.40857753 0.9489112 -0.71086717 -0.08607058 -0.69740057 0.4473108 0.6247279 1.3412174 0.18019946 0.2726714 1.7972851 1.8224751 -0.6930561 -0.22913732 -1.226389 0.03575853 1.875987 -1.306425 1.456628 -1.0684433 -0.4553805 -0.9558345 0.012120969 -0.619138 0.21198533 -2.023388 -0.74736536 -2.7330189 -0.6833527 -1.1641927 -0.3773113 2.482525 -0.09790213 0.8156021 -2.1551895 -1.3511213 1.3548523 2.0340815 -0.6701045 -0.76220423 0.39790338 -1.0006669 -1.044113 1.2652756 -0.6609975 -1.0013794 0.76984227 -0.8316074 -1.7928329 -0.0290608 0.044872776 -2.13902 0.94575673 1.3823577 2.1862056 -1.1776565 3.009423 1.3429444 -0.56888145 -2.1664548 -0.42384046 -0.08724562 2.372033 0.6828354 -1.0897268 0.123100184 0.36289945 0.61744756 -0.7361521 -0.32942957 2.2831004 -0.39583763 -0.28513196 1.9998759 0.28179485 1.4104105 0.05411029 -2.1736088 -1.2586677 0.2860738 -0.3337149 0.70725703 0.49534822 -0.0656675 0.011719054 0.27896577 0.852462 1.4402204 -2.5178418 1.5969085 -0.7073118 -0.53673136 -0.3172826 -0.05829273 2.248897 2.0776439 -2.4246042 0.8430066 -1.2183475 0.80444324 1.256029 -0.21862772
der -2.5010285 -0.28300622 0.76156855 0.79428566 0.7264207 -0.5900219 0.87945074 -0.76858276 -1.408612 -1.1568893 -0.85007 -1.1958079 3.278068 0.13254778 0.8544475 0.5188593 -0.08421774 -0.16247366 -0.27820575 -2.7840946 0.1950352 0.42040792 -0.41573033 -1.4439067 1.501286 -0.97901684 -0.32700703 -0.46541706 1.1302612 0.14061972 0.7683105 -1.5873338 -1.0659734 -0.24852754 0.58045465 0.18635854 -0.5596274 0.2577933 0.004056625 -1.8644074 -0.39710352 0.47209048 -0.51949525 1.3825735 -0.21199529 0.15628915 0.5754768 -0.42204115 0.44074976 -1.0990125 0.5845867 -0.57063484 0.16721922 -0.7510307 0.5139366 0.04315647 -0.14480692 0.06740703 0.73258 -0.5850891 1.2070398 -0.40790382 -1.0946401 -0.10062144 -0.86656314 1.3199688 0.18129882 0.34158635 -1.2442428 0.48565823 0.7960507 0.9074816 -0.5515962 1.1007241 -1.27934 -0.73099446 1.2544975 -1.3737017 -0.46777827 -1.2180052 0.2683342 0.25258768 0.5593362 1.8690495 -1.3327781 -0.44433936 0.36528903 -0.65165555 -1.0033057 -1.3624135 0.10509679 -0.69344026 0.10086836 1.0056013 -0.25061464 0.48817268 0.49615106 -0.7286133 0.042034734 -1.5146576 -1.2893493 1.5523112 -0.696589 0.10737359 0.69464606 -0.9701257 1.3029381 -1.4408493 0.7860546 -0.7324038 0.59486693 0.9168794 0.3429528 -0.878587 -1.442895 -1.0441489 1.2589344 1.0713325 -0.2516831 -2.3398898 -0.5558364 0.8986572 0.5657119 0.4263083 -0.96940076 -0.07884923 -0.6987597 -0.6324202 0.74780214 0.94225836 0.21369317 0.9460104 0.6207993 0.1391201 2.7085533 2.0630484 0.061303373 -0.020897506 -0.041898437 -0.47559655 0.6225808 0.18607883 -0.9610939 1.4212168 0.56334347 1.3844105 0.5647112 0.65198344 1.6506042 0.32879078
jetzt 1.2932231 -0.20307261 0.948219 -0.24997461 0.11501558 0.91502565 -1.7391729 0.11199928 -1.1183581 -0.7416253 0.5533341 0.13078214 1.1485546 0.9918403 -0.90753853 0.84767485 -0.17410468 -0.22198956 -1.1930267 -0.98504484 -0.2970074 1.2793041 1.4315863 0.82171816 -0.32334843 0.7662486 0.44086322 -0.25795677 -0.1429151 -0.07231195 -0.8939654 -0.66648585 -1.3166046 0.13000344 -0.6387957 0.35168123 -0.1376357 -0.0005814581 -1.1682534 -0.7354869 0.5372105 1.1132134 -0.07460631 0.47449496 1.4234293 -1.7703104 0.35553604 -0.82239074 0.21518941 0.16206144 -0.10494038 0.48740754 -0.93372494 -0.24248146 0.7453638 -1.0417017 -0.13396765 0.23966506 -0.14357203 -0.92391586 0.40639582 0.34398857 0.77235585 0.45414105 -0.2693235 -0.2147922 0.66758674 -0.7189858 0.28740782 -0.10717896 1.4215876 0.020093322 -0.4428636 1.5254428 -0.18544124 -0.6478796 0.605196 -1.3778247 1.1811808 0.9862159 -0.70198536 -0.7275162 -0.195658 -0.07124241 0.8969343 -0.78819776 -0.28363457 -0.39167804 0.9992223 0.4121783 -1.0591354 0.6205898 -0.28345358 0.27357382 0.72025806 -1.2130374 -2.015205 0.37865117 0.6708499 0.89693606 -1.5353577 1.0236744 0.4143352 -0.17208332 0.32201117 0.3711691 -0.13341661 -1.0206159 0.7296488 0.076672785 -0.37007266 1.4048878 -0.57488644 0.25149822 -0.2948701 0.5916626 0.6259587 -0.9431557 0.53985363 0.16417347 -0.4841775 -0.572949 -0.9830672 0.59587103 -0.6427117 -0.9558198 -0.7555802 1.381733 -0.5490196 -0.06813077 -0.36110556 -0.032487802 0.50290936 0.24735227 0.8174206 0.9973429 0.551449 -0.7650384 -0.5333202 -1.0945001 1.0172166 -0.031616416 0.016381534 -0.07241829 -1.1299738 -1.0893824 1.0573719 0.42866403 0.74648696 -0.534437
